0.0095636,0.18484,0.8056,-0.39263
0.12282,0.1434,0.73382,0.031124
0.0456,0.20089,0.75369,-0.32799
0.048509,0.24338,0.70815,-0.40715
0.14622,0.20527,0.64851,-0.20229
0.13265,0.17209,0.69549,-0.02436
0.055418,0.24344,0.70111,-0.32163
0.015873,0.28585,0.69827,-0.49346
0.025436,0.10458,0.86998,-0.2175
0.059018,0.24336,0.69773,-0.34624
0.11465,0.1196,0.76569,-0.053355
0.0248,0.29536,0.67973,-0.58603
0.053709,0.26011,0.68609,-0.37244
0.027091,0.20053,0.77238,-0.36164
0.13678,0.15265,0.71065,-0.11229
0.029109,0.10678,0.86411,-0.1636
0.031636,0.27816,0.6902,-0.34191
0.058455,0.097091,0.84445,-3.0909e-05
0.066418,0.26991,0.66367,-0.35684
0.044109,0.16175,0.79418,-0.34514
0.049,0.3258,0.62505,-0.51584
0.10385,0.17705,0.71909,-0.15908
0,0.31713,0.68287,-0.53213
0.033455,0.19667,0.76969,-0.26365
0.020745,0.11556,0.86384,-0.1759
0.050527,0.23935,0.71013,-0.35447
0.0264,0.23384,0.73976,-0.42352
0.036309,0.22311,0.74053,-0.20609
0.021945,0.3358,0.64225,-0.3866
0.021636,0.2756,0.70269,-0.39853
0.024364,0.13436,0.84113,-0.26812
0.063964,0.14715,0.78889,-0.22275
0.012382,0.19953,0.78809,-0.36334
0.012509,0.17589,0.8116,-0.26349
0.038,0.095255,0.86675,0.0090618
0.030436,0.21367,0.75587,-0.45331
0.097436,0.13482,0.76775,-0.051644
0.15484,0.22215,0.62296,-0.094829
0.091145,0.17922,0.72955,-0.19757
0.0097273,0.22935,0.76093,-0.37814
0.095382,0.12291,0.78176,0.041451
0.10316,0.16404,0.73264,-0.10731
0.097236,0.17651,0.72635,-0.030644
0.053164,0.19407,0.75276,-0.40581
0.10718,0.15049,0.74233,-0.14215
0.18251,0.14182,0.67567,0.057833
0.058691,0.1932,0.74798,-0.27255
0.073273,0.17064,0.75635,-0.12582
0.057436,0.097018,0.84555,-0.098949
0.070055,0.10449,0.82545,-0.12198
0.21965,0.1356,0.64478,0.17385
0.172,0.21024,0.61758,-0.13302
0.057018,0.055764,0.88722,-0.06356
0.1188,0.21578,0.66542,-0.09346
0.039655,0.27336,0.68696,-0.40136
0.14005,0.16073,0.69904,-0.13016
0.019327,0.30224,0.67851,-0.56859
0.10398,0.21525,0.6806,-0.24493
0.086982,0.16269,0.75022,-0.1982
0.034091,0.21976,0.74615,-0.29429
0.070564,0.11165,0.81778,-0.11658
0.16185,0.11425,0.72382,0.030105
0.13018,0.15858,0.7112,-0.10391
0.044255,0.23771,0.71804,-0.34867
0.084055,0.099891,0.81607,-0.011942
0.096436,0.25384,0.64989,-0.32947
0.10015,0.20742,0.6926,-0.28692
0.013636,0.22784,0.75853,-0.42945
0.13167,0.0522,0.81613,0.12817
0.13135,0.082509,0.78615,0.0851
0.032145,0.12202,0.84584,-0.11612
0.017836,0.22438,0.75778,-0.36817
0.068182,0.10858,0.82324,-0.095193
0.040145,0.11475,0.84511,-0.18095
0.042382,0.21691,0.74071,-0.36051
0.080945,0.14304,0.77584,-0.15369
0.11898,0.10045,0.78065,-0.085631
0.0056364,0.15604,0.83833,-0.2535
0.15687,0.10682,0.73642,0.016282
0.012236,0.17996,0.8078,-0.29295
0.075436,0.22625,0.69842,-0.42425
0.16771,0.17471,0.65758,-0.093089
0.098745,0.19478,0.70656,-0.12844
0.039455,0.25304,0.70773,-0.50432
0.11616,0.066291,0.8176,0.067611
0.11265,0.11405,0.77331,-0.046411
0.087327,0.28453,0.62815,-0.48519
0.094255,0.064309,0.84144,0.075184
0.024055,0.37013,0.60584,-0.64033
0.073909,0.087255,0.83884,-0.13608
0.022473,0.19235,0.78518,-0.38533
0.11522,0.33422,0.55073,-0.42561
0.066418,0.16789,0.76569,-0.18672
0.047655,0.21791,0.73444,-0.42969
0.055018,0.33905,0.60593,-0.5794
0.067327,0.20062,0.73193,-0.25212
0.099364,0.13376,0.76687,-0.056624
0.039727,0.24502,0.71538,-0.45748
0.057582,0.21722,0.7252,-0.28841
0.084055,0.16753,0.74869,-0.31652
0.0316,0.20778,0.76062,-0.33465
0.10907,0.19284,0.69825,-0.1224
0,0.24902,0.75098,-0.44551
0.10231,0.17415,0.72355,-0.10867
0.0084,0.16295,0.82865,-0.30389
0,0.21029,0.78971,-0.36479
0.0076364,0.15267,0.83982,-0.22791
0.059291,0.13856,0.80215,-0.34904
0.070291,0.15249,0.77722,-0.21067
0.023545,0.26395,0.71264,-0.41163
0.0498,0.17353,0.77667,-0.27299
0.058436,0.21687,0.72478,-0.2969
0.033618,0.38305,0.58351,-0.64137
0.088509,0.2142,0.69733,-0.33706
0.058291,0.15213,0.7894,-0.19188
0.071655,0.20409,0.72427,-0.32956
0.10075,0.21007,0.68904,-0.25688
0.099564,0.1368,0.76364,-0.20294
0.015618,0.13913,0.84525,-0.22966
0.074545,0.085273,0.84018,0.023773
0.015582,0.17558,0.80884,-0.29286
0.11884,0.12796,0.7532,0.059542
0.046655,0.18238,0.77096,-0.38395
0.058218,0.1626,0.77918,-0.26502
0.086236,0.20047,0.71329,-0.1413
0.058145,0.093727,0.84802,-0.089024
0.020345,0.19518,0.78435,-0.3884
0.10136,0.25785,0.64107,-0.37527
0.072473,0.14733,0.7802,-0.086476
0.017273,0.13273,0.85,-0.27107
0.032255,0.20564,0.76211,-0.47446
0.032218,0.1938,0.77395,-0.28051
0.087182,0.17444,0.73855,-0.22193
0.10873,0.17484,0.71644,-0.0942
0.041091,0.26218,0.69673,-0.3159
0.092764,0.18498,0.72225,-0.055178
0.10625,0.16576,0.72798,-0.1585
0.084545,0.099036,0.81642,-0.10236
0.097091,0.12736,0.77542,-0.075551
0.043509,0.15324,0.80325,-0.32033
0.050364,0.2042,0.74544,-0.14676
0.092636,0.28105,0.62631,-0.41983
0.12207,0.23465,0.64313,-0.39043
0.10133,0.17865,0.71996,-0.20977
0.0478,0.30545,0.64675,-0.57335
0.082109,0.083145,0.83482,0.076493
0.020182,0.19627,0.78355,-0.35978
0.069855,0.30704,0.62311,-0.39153
0.0192,0.25802,0.72278,-0.50293
0.098473,0.19282,0.70867,-0.28838
0.069527,0.17624,0.75424,-0.29633
0.050618,0.24609,0.70329,-0.39419
0.032691,0.25593,0.71118,-0.37593
0.025855,0.25151,0.72276,-0.53037
0.037345,0.22933,0.73331,-0.37539
0.11149,0.209,0.67949,-0.23055
0.059855,0.1782,0.76191,-0.30529
0.0198,0.2926,0.6876,-0.47507
0.061145,0.28007,0.65862,-0.52519
0.061527,0.23027,0.7082,-0.40428
0.0092727,0.11964,0.87109,-0.33711
0.0052182,0.23691,0.75787,-0.43883
0.085127,0.043945,0.87093,0.050004
0.12025,0.10927,0.77047,-0.084455
0.047055,0.10036,0.85265,-0.050342
0.054255,0.13595,0.8098,-0.16851
0.063218,0.2022,0.73447,-0.33286
0.094091,0.085291,0.82071,0.059356
0.020873,0.24135,0.73778,-0.36544
0.079036,0.21825,0.70271,-0.33332
0.019273,0.11993,0.8608,-0.29567
0.0082364,0.15964,0.83211,-0.30248
0.068891,0.19418,0.73702,-0.25477
0.080473,0.24002,0.67958,-0.2461
0.082273,0.17764,0.74009,-0.14093
0.27164,0.11929,0.60902,0.11725
0.089709,0.15411,0.75618,-0.016053
0.088873,0.15631,0.75487,-0.16145
0.0604,0.12236,0.81724,-0.19534
0.030782,0.17491,0.79431,-0.28966
0.043618,0.18031,0.77607,-0.26203
0.0766,0.12129,0.80211,-0.062764
0.056018,0.23275,0.71124,-0.39342
0.092945,0.17402,0.73304,-0.17953
0.058836,0.18958,0.75171,-0.39153
0.095782,0.17829,0.72593,-0.1846
0.15284,0.12211,0.72498,0.0064145
0.099964,0.10635,0.79369,0.099896
0.1128,0.0848,0.80251,0.040398
0.0596,0.23056,0.70964,-0.37048
0.068527,0.10444,0.82704,-0.1564
0.11607,0.13209,0.75189,-0.027704
0.042545,0.27593,0.68153,-0.44112
0.069764,0.10013,0.83011,0.047824
0.0696,0.13416,0.79624,0.011713
0.034727,0.14878,0.81649,-0.23341
0.034909,0.29736,0.66791,-0.57908
0.038436,0.16535,0.79622,-0.28645
0.10389,0.27427,0.62184,-0.2256
0.048182,0.0976,0.85422,-0.11957
0.062491,0.19865,0.73878,-0.3143
0.048055,0.058927,0.89304,-0.018596
0.085836,0.17893,0.73524,-0.22536
0.056709,0.13627,0.80702,-0.2245
0.062545,0.037127,0.9002,-0.022035
0,0.073727,0.92627,-0.12485
0.030127,0.14685,0.82302,-0.18159
0.1308,0.11638,0.75282,-0.0069927
0.14604,0.149,0.70496,-0.053942
0.083655,0.19107,0.72527,-0.24637
0.074891,0.14898,0.77613,-0.32322
0.10627,0.17195,0.72155,-0.24164
0.091164,0.13518,0.77365,-0.018687
0.018145,0.24496,0.73689,-0.35055
0.0446,0.1416,0.8138,-0.18523
0.064309,0.1828,0.75289,-0.46092
0.061855,0.1914,0.74687,-0.49311
0.043891,0.18364,0.77247,-0.38436
0.12376,0.10502,0.77111,-0.0079127
0.047327,0.25509,0.69767,-0.51034
0.077073,0.22945,0.69335,-0.32029
0.15167,0.17456,0.67376,-0.0079855
0.010291,0.12984,0.85987,-0.16029
0.0083818,0.090764,0.90085,-0.1689
0.1448,0.17625,0.67905,-0.037125
0.18005,0.068582,0.75136,0.0047473
0.051818,0.17891,0.76944,-0.20554
0.015164,0.29125,0.69358,-0.45554
0.0518,0.15713,0.79135,-0.21545
0.042927,0.26847,0.68845,-0.51746
0.0252,0.12207,0.85273,-0.30488
0.052873,0.31929,0.62798,-0.49323
0.049255,0.23655,0.71407,-0.39864
0.016309,0.39669,0.587,-0.72376
0.053655,0.25662,0.68953,-0.41195
0.070455,0.12582,0.80375,-0.2688
0.070109,0.20611,0.72384,-0.36411
0.098182,0.23375,0.66789,-0.27532
0.019491,0.13293,0.84758,-0.24157
0.063855,0.24822,0.68793,-0.26688
0.075764,0.1982,0.72604,-0.23334
0.071291,0.18736,0.74135,-0.24039
0.033455,0.21435,0.75218,-0.54844
0.089309,0.19285,0.71796,-0.38308
0.045873,0.15105,0.80307,-0.36565
0.041491,0.25444,0.70425,-0.54162
0.0932,0.11533,0.79147,-0.25889
0.042218,0.083055,0.87473,-0.10211
0.060145,0.18905,0.7508,-0.31925
0.020236,0.15753,0.82224,-0.38959
0.059927,0.15004,0.79,-0.26178
0.030436,0.21095,0.75862,-0.418
0.078091,0.19422,0.72762,-0.28853
0.081018,0.16276,0.75622,-0.20935
0.072382,0.15433,0.77322,-0.19907
0.078855,0.12787,0.79335,-0.22674
0.044945,0.11087,0.84418,-0.13624
0.037836,0.11045,0.85171,-0.29149
0.0094,0.0934,0.89724,-0.29915
0.060218,0.12418,0.81573,-0.18337
0.15405,0.051527,0.79438,0.081231
0.074855,0.21315,0.71191,-0.4936
0.019455,0.18045,0.80013,-0.39669
0.040927,0.25773,0.70144,-0.39734
0.091909,0.14371,0.76438,-0.12911
0.082091,0.2028,0.71516,-0.3022
0.064364,0.17213,0.76318,-0.20022
0.077709,0.11675,0.80562,-0.27262
0.0091273,0.14271,0.84816,-0.40018
0.072182,0.21345,0.7144,-0.38125
0.0754,0.11982,0.80478,-0.069995
0.048382,0.20735,0.74442,-0.33978
0.073164,0.25296,0.67369,-0.411
0.091527,0.10147,0.80682,0.058005
0.043964,0.10215,0.85389,-0.24634
0.074855,0.22849,0.69671,-0.43358
0.12242,0.079709,0.79782,0.10209
0.14122,0.11778,0.74113,0.12616
0.058273,0.10916,0.83256,-0.012865
0.053036,0.19216,0.7548,-0.46572
0.082364,0.21365,0.70382,-0.2514
0.10022,0.12342,0.77633,-0.061378
0.073636,0.20633,0.72004,-0.27448
0.078473,0.11875,0.80284,-0.27996
0.091018,0.13609,0.773,-0.19098
0.10116,0.12342,0.77529,-0.072258
0.13104,0.15744,0.71153,0.029665
0.085945,0.2446,0.66931,-0.35927
0.069,0.15149,0.7796,-0.09862
0.060764,0.16825,0.77107,-0.23916
0.0716,0.17804,0.75036,-0.081505
0.085564,0.14211,0.77233,-0.21906
0.039836,0.17785,0.78225,-0.24001
0.016364,0.30355,0.68009,-0.58314
0.060036,0.13953,0.80044,-0.086685
0.051309,0.14429,0.80469,-0.18516
0.079818,0.12435,0.79562,-0.10821
0.0896,0.24531,0.665,-0.21245
0.036636,0.1618,0.80156,-0.33413
0.083927,0.12269,0.79338,-0.12805
0.036945,0.066509,0.89655,-0.09966
0.050927,0.27071,0.67836,-0.48851
0.13369,0.080327,0.78585,0.15718
0.0658,0.13765,0.7964,-0.11101
0.13582,0.082527,0.78169,0.10109
0.039727,0.078891,0.88138,-0.11819
0.096745,0.17765,0.72567,-0.31783
0.0814,0.22198,0.69676,-0.35294
0.11771,0.13678,0.74556,0.013415
0.049364,0.18573,0.76505,-0.33631
0.087836,0.14704,0.76518,-0.094764
0.038655,0.19182,0.7694,-0.26679
0.11645,0.10776,0.77578,-0.073782
0.061727,0.0692,0.86904,0.035431
0.049055,0.15324,0.79753,-0.28412
0.069018,0.20687,0.72424,-0.25455
0.041145,0.12242,0.83644,-0.12466
0.075109,0.14373,0.78116,-0.1039
0.11807,0.13829,0.74364,-0.15616
0.060964,0.21676,0.72227,-0.38673
0.042036,0.13293,0.82513,-0.27417
0.0128,0.248,0.73927,-0.52315
0.12618,0.091418,0.7824,-0.14087
0.0061455,0.18433,0.80953,-0.31155
0.077655,0.19707,0.72505,-0.25645
0.089709,0.16545,0.74487,-0.33503
0.016291,0.15525,0.82845,-0.33316
0.071145,0.17127,0.75755,-0.20188
0.029636,0.16302,0.80735,-0.30111
0.11024,0.18395,0.70582,-0.30685
0.039255,0.23865,0.72209,-0.38235
0.055764,0.21047,0.73376,-0.28693
0.033382,0.29415,0.67255,-0.65009
0.034691,0.19875,0.76667,-0.32216
0.023436,0.19013,0.78644,-0.389
0.049855,0.12064,0.82951,-0.08832
0.053891,0.10311,0.84325,-0.15518
0.12285,0.13485,0.74229,-0.02444
0.042836,0.1396,0.81756,-0.31413
0.045709,0.17824,0.77615,-0.37568
0.081055,0.1654,0.75365,-0.16474
0.091436,0.17796,0.7306,-0.24671
0.056545,0.20482,0.73871,-0.35832
0.035873,0.17162,0.79253,-0.36782
0.11436,0.174,0.71147,-0.24747
0.087255,0.091073,0.82167,-0.033167
0.067782,0.16515,0.7672,-0.3559
0.044727,0.10231,0.85296,-0.16269
0.039618,0.10224,0.85815,-0.1413
0.20464,0.081382,0.7138,0.28121
0.083309,0.096436,0.82024,0.054345
0.0061636,0.15516,0.83867,-0.31526
0,0.20756,0.79244,-0.52371
0.0086545,0.11998,0.87129,-0.35527
0.022418,0.16415,0.81344,-0.30186
0.058455,0.1632,0.77838,-0.39603
0.15753,0.15018,0.69211,-0.079831
0.14996,0.18105,0.66902,-0.20668
0.067182,0.14909,0.78373,-0.16162
0.071527,0.068491,0.86002,-0.030751
0.078945,0.26216,0.65889,-0.26348
0.066218,0.13811,0.79558,-0.32148
0.056745,0.28582,0.65736,-0.35286
0.010909,0.15315,0.83595,-0.35958
0.13111,0.12264,0.74651,-0.038295
0.064945,0.14149,0.79351,-0.15724
0.19553,0.14276,0.66171,-0.024789
0.038564,0.18571,0.77571,-0.37322
0.062236,0.18996,0.74762,-0.31915
0.061145,0.1948,0.74405,-0.37385
0.018291,0.18449,0.79722,-0.26079
0.047673,0.17065,0.78153,-0.43296
0.027509,0.14111,0.83136,-0.24793
0.17087,0.19476,0.63405,0.029175
0.17342,0.12922,0.69736,-0.054538
0.11438,0.16304,0.72245,-0.18358
0.097818,0.12116,0.78093,-0.086938
0.074673,0.18309,0.74233,-0.29904
0.0464,0.13204,0.82156,-0.27112
0.10704,0.20604,0.68693,-0.30376
0.052164,0.1168,0.83104,-0.15586
0.067255,0.22433,0.70842,-0.27923
0.0174,0.19285,0.78975,-0.39225
0.060364,0.18358,0.75622,-0.38396
0.043745,0.16089,0.79536,-0.2655
0.14665,0.16033,0.69304,-0.31668
0.060273,0.13865,0.80107,-0.16734
0.092564,0.18227,0.72507,-0.38758
0.065,0.13976,0.79524,-0.2273
0.047564,0.079473,0.87296,-0.060205
0.060927,0.10005,0.83898,0.025158
0.050273,0.1984,0.75142,-0.3161
0.067491,0.17218,0.76015,-0.24524
0.17782,0.23304,0.58904,-0.068318
0.079109,0.14987,0.77087,-0.11809
0.035909,0.19851,0.76545,-0.20122
0.024618,0.17431,0.80107,-0.31616
0.10233,0.11093,0.78658,-0.035633
0.14555,0.13702,0.71744,-0.036329
0.039018,0.14482,0.81616,-0.19669
0.0564,0.11204,0.83175,-0.065224
0.083418,0.16125,0.75551,-0.1785
0.084727,0.12951,0.78582,-0.17912
0.085945,0.1506,0.76345,-0.044256
0.075073,0.14025,0.78465,-0.17737
0.082127,0.13718,0.78069,-0.21845
0.042818,0.20942,0.7476,-0.47717
0.055564,0.12475,0.81962,-0.15436
0.064091,0.21971,0.71625,-0.51456
0.062764,0.14589,0.79102,-0.1308
0.029418,0.31002,0.66056,-0.51168
0.048473,0.17876,0.77276,-0.35433
0.11967,0.1044,0.77598,0.0083945
0.062018,0.18024,0.75791,-0.30199
0.12369,0.20189,0.67449,-0.1983
0.045218,0.12469,0.83004,-0.21502
0.0099091,0.21836,0.77173,-0.44156
0.091873,0.18793,0.72035,-0.28968
0.055236,0.30375,0.6408,-0.42201
0.093727,0.16371,0.74253,-0.1023
0.057473,0.1084,0.83413,-0.15822
0.086745,0.13695,0.77638,-0.026498
0.099055,0.15605,0.74507,-0.12434
0.095309,0.12236,0.78251,-0.18213
0.036582,0.27,0.69342,-0.4099
0.049782,0.055255,0.89496,-0.044709
0.074764,0.13515,0.79009,-0.12987
0.035091,0.22509,0.73982,-0.38023
0.13689,0.11064,0.75262,0.0016055
0.037818,0.14307,0.81911,-0.34783
0.010873,0.13785,0.85127,-0.22586
0.15596,0.054709,0.78931,0.092215
0.010691,0.12669,0.86262,-0.20357
0.048836,0.16844,0.78258,-0.3
0.066655,0.21,0.7232,-0.35165
0.049236,0.26205,0.68871,-0.44917
0.071491,0.14258,0.78593,-0.11397
0.0086182,0.28125,0.71013,-0.48319
0.13591,0.13393,0.73016,-0.11499
0.048673,0.15718,0.79415,-0.37443
0.094309,0.26229,0.64316,-0.43495
0.016909,0.13813,0.84507,-0.31891
0.087127,0.13258,0.78029,-0.22071
0.059545,0.12382,0.81664,-0.05238
0.074745,0.22935,0.69602,-0.38376
0.055091,0.14633,0.7984,-0.073365
0.059273,0.11122,0.82951,-0.072884
0.050836,0.22255,0.72664,-0.46491
0.071582,0.13204,0.7962,-0.13004
0.064891,0.11671,0.8184,-0.039296
0.043127,0.096564,0.86031,-0.21099
0.038909,0.14356,0.81753,-0.27931
0.054873,0.16976,0.77536,-0.22616
0.10713,0.17825,0.71462,-0.10708
0.013945,0.16355,0.82236,-0.37756
0.085745,0.12142,0.79311,-0.078265
0.043709,0.20033,0.75593,-0.53949
0.066945,0.14204,0.79102,-0.17439
0.058564,0.20998,0.73145,-0.46975
0.013091,0.15678,0.83013,-0.45471
0.049127,0.23558,0.71529,-0.54882
0.073964,0.077891,0.84789,-0.10986
0.094636,0.19744,0.70765,-0.28268
0.0944,0.061218,0.84433,0.10059
0.033491,0.12204,0.84447,-0.045018
0.092273,0.26178,0.64591,-0.32182
0.043127,0.11484,0.84185,-0.19922
0.039836,0.076327,0.88384,-0.042967
0.061873,0.15398,0.78413,-0.22305
0.038273,0.13269,0.82904,-0.28387
0.023164,0.23938,0.73745,-0.51906
0.15491,0.11715,0.72802,-0.038367
0.10342,0.1158,0.78076,0.044862
0.082636,0.20275,0.71458,-0.16294
0.069364,0.16491,0.76573,-0.080824
0.0096,0.10238,0.88802,-0.22289
0.062818,0.27047,0.66656,-0.55937
0.16375,0.070745,0.76551,0.21527
0.035964,0.12609,0.83807,-0.13213
0.058673,0.16916,0.77209,-0.20578
0.061909,0.1736,0.76449,-0.16523
0.096673,0.21962,0.68371,-0.32196
0.037455,0.037891,0.92465,0.022729
0.031636,0.3134,0.65505,-0.62166
0.10504,0.19478,0.70036,-0.22637
0.052745,0.089036,0.85829,-0.21614
0.080782,0.10707,0.81218,-0.14553
0.066545,0.17969,0.75376,-0.14703
0.064636,0.070691,0.86476,-0.0111
0.068255,0.028473,0.90327,0.15935
0.095836,0.19949,0.70467,-0.43041
0.097236,0.20704,0.69575,-0.28299
0.084709,0.12702,0.78827,-0.16883
0.072509,0.19756,0.72987,-0.4548
0.058818,0.15858,0.78278,-0.28515
0.055273,0.10204,0.8428,-0.1913
0.080945,0.20231,0.71696,-0.38607
0.014364,0.18415,0.80149,-0.43637
0.10058,0.0824,0.81716,0.058171
0.10027,0.12031,0.77956,-0.016364
0.029745,0.25689,0.71325,-0.47364
0.028036,0.19104,0.78093,-0.27703
0.032455,0.16938,0.79816,-0.28551
0.0836,0.13889,0.77742,-0.15927
0.075345,0.11596,0.80869,-0.15584
0.10036,0.068382,0.83138,0.17173
0.085327,0.10533,0.80936,-0.17921
0.056782,0.19315,0.74991,-0.31049
0.070327,0.17993,0.7496,-0.3788
0.090909,0.083073,0.82602,-0.038291
0.12715,0.15882,0.71404,-0.052887
0.050018,0.14471,0.80527,-0.088064
0.054618,0.1248,0.82065,-0.16857
0.10456,0.16924,0.72611,-0.15734
0.0152,0.117,0.8678,-0.27181
0.041655,0.17956,0.7788,-0.247
0.11033,0.15489,0.73478,-0.022282
0.098745,0.12253,0.77873,0.035456
0.0026545,0.19205,0.80529,-0.3569
0.039382,0.083618,0.877,-0.23527
0.077636,0.14178,0.78058,-0.17264
0.056964,0.13313,0.80982,-0.15563
0.069491,0.12453,0.806,-0.27307
0.12591,0.12991,0.74418,0.12983
0.029018,0.18309,0.78789,-0.21682
0.072964,0.31856,0.6086,-0.3738
0.042527,0.29444,0.66304,-0.47008
0.0045273,0.18696,0.80856,-0.42602
0.064673,0.27355,0.66164,-0.32462
0.022873,0.10413,0.873,-0.20402
0.10544,0.12022,0.77436,-0.046275
0.088327,0.17696,0.7348,-0.33466
0.057655,0.21393,0.72816,-0.46433
0.059618,0.040255,0.90013,0.074625
0.092618,0.16011,0.74727,-0.21143
0.042,0.0746,0.8834,-0.18422
0.021891,0.15715,0.82096,-0.45908
0.062418,0.21513,0.72211,-0.33363
0.024945,0.25911,0.71595,-0.48767
0.078291,0.27629,0.64545,-0.41715
0.034982,0.16038,0.80464,-0.24288
0.011036,0.2428,0.74616,-0.61139
0.039727,0.21973,0.74067,-0.57463
0.1126,0.182,0.7054,-0.23996
0.096491,0.074709,0.82876,0.081844
0.15095,0.11069,0.73822,0.13455
0.18675,0.24158,0.57185,-0.11311
0.18062,0.15405,0.66549,0.075495
0.041091,0.15665,0.8024,-0.36718
0.17518,0.17464,0.65015,-0.05652
0.13149,0.10716,0.76116,0.14417
0.1488,0.1116,0.7396,0.033302
0.066491,0.21685,0.7166,-0.13559
0.074309,0.24829,0.67725,-0.40866
0.028182,0.10287,0.86895,-0.10089
0.041473,0.24402,0.71451,-0.37322
0.043236,0.26442,0.69224,-0.45058
0.048145,0.14467,0.80718,-0.15564
0.071327,0.22522,0.70325,-0.15694
0.030873,0.14642,0.82271,-0.25683
0.055164,0.30105,0.64393,-0.3547
0.065436,0.22444,0.71013,-0.20553
0.098345,0.20556,0.69609,-0.080478
0.071164,0.15458,0.77433,-0.26199
0.028091,0.029127,0.94267,-0.029418
0.072545,0.12795,0.79964,-0.22084
0.047764,0.10915,0.84309,-0.080225
0.0592,0.13324,0.80751,-0.073709
0.038255,0.17564,0.78615,-0.27361
0.053927,0.20585,0.74022,-0.37441
0.12065,0.13058,0.74902,0.061449
0.12724,0.2014,0.67155,-0.16424
0.040218,0.19224,0.76755,-0.46847
0.11467,0.1582,0.72733,-0.049522
0.032964,0.1352,0.83184,-0.20759
0.049764,0.14684,0.80327,-0.33609
0.082455,0.081018,0.83653,0.11373
0.053255,0.17555,0.7712,-0.34386
0.070673,0.12218,0.80715,-0.0097727
0.018327,0.20076,0.78104,-0.34791
0.059218,0.16295,0.77785,-0.35682
0.042945,0.24882,0.70831,-0.45335
0.041818,0.14365,0.81469,-0.27035
0.054945,0.21707,0.72784,-0.31363
0.15547,0.13942,0.70516,0.12409
0.11169,0.13209,0.75627,-0.17798
0.075109,0.048982,0.87591,0.12355
0.030491,0.1762,0.79331,-0.48118
0.085636,0.049545,0.86484,-0.021216
0.059091,0.088873,0.85204,-0.0089982
0.043927,0.13851,0.81756,-0.17509
0.0656,0.212,0.72265,-0.15951
0.050218,0.1702,0.77962,-0.29088
0.048236,0.22938,0.72251,-0.31845
0.029345,0.14565,0.82509,-0.23289
0.039545,0.16795,0.79251,-0.24264
0.024891,0.14693,0.82818,-0.28336
0.039709,0.17338,0.78682,-0.34525
0.032982,0.079655,0.88736,-0.23069
0.045073,0.20373,0.75095,-0.35879
0.10724,0.089036,0.80375,0.070184
0.049364,0.16784,0.7828,-0.19247
0.063582,0.19178,0.74458,-0.24499
0,0.17702,0.82298,-0.39659
0.11467,0.13073,0.7544,0.050511
0.053636,0.068145,0.87822,0.041371
0.028873,0.036509,0.93462,-0.087718
0.057927,0.12985,0.81222,-0.26101
0.10789,0.18269,0.70942,-0.18683
0.022073,0.099473,0.87831,-0.23797
0.070727,0.12113,0.80825,-0.12603
0.050164,0.21285,0.73698,-0.32683
0.052836,0.20716,0.74,-0.3342
0.12207,0.22496,0.65282,-0.18571
0.030364,0.038491,0.93115,-0.041953
0.047764,0.13344,0.8188,-0.25189
0.045818,0.19684,0.75735,-0.39295
0.14167,0.19284,0.66589,-0.2312
0.092182,0.17765,0.73011,-0.36614
0.034073,0.12091,0.84502,-0.15268
0.10385,0.22542,0.67089,-0.26641
0.047818,0.16651,0.78565,-0.38221
0.040218,0.14884,0.81095,-0.25643
0.046255,0.10318,0.85071,-0.10326
0.078545,0.15655,0.76478,-0.14439
0.10095,0.053618,0.84544,0.034876
0.15929,0.11495,0.7258,0.066618
0.056036,0.20335,0.74062,-0.2621
0.098818,0.14704,0.75415,-0.044622
0.034327,0.17002,0.79565,-0.32168
0.019345,0.058418,0.92224,-0.031282
0.051891,0.15556,0.79255,-0.2693
0.0694,0.17375,0.75671,-0.067118
0.054236,0.16527,0.78055,-0.24916
0.0394,0.17993,0.78065,-0.2393
0.0434,0.22955,0.72702,-0.45176
0.060964,0.21831,0.72073,-0.18803
0.091655,0.24844,0.66,-0.23585
0.067291,0.20349,0.72922,-0.28769
0.033527,0.24122,0.72525,-0.34903
0.045818,0.19749,0.75669,-0.32427
0.097345,0.1702,0.73251,-0.14203
0.033673,0.17733,0.78916,-0.21284
0.091073,0.14342,0.76565,-0.1449
0.12167,0.026182,0.85218,0.13788
0.083182,0.13884,0.77798,-0.30408
0.036636,0.2312,0.73191,-0.3627
0.12067,0.1368,0.74253,-0.079495
0.092727,0.12305,0.78422,-0.053696
0.055164,0.11796,0.82687,-0.10776
0.088782,0.18242,0.72862,-0.38211
0.095145,0.2288,0.67616,-0.14851
0.090273,0.10622,0.80351,0.020985
0.063,0.141,0.79618,-0.10742
0.065236,0.12704,0.80778,-0.052129
0.10225,0.088945,0.80891,-0.11267
0.115,0.15231,0.73269,-0.035684
0.098618,0.12071,0.78055,-0.11235
0.093109,0.25838,0.64842,-0.35557
0.098218,0.16625,0.7356,-0.15427
0.044436,0.17665,0.77891,-0.2109
0.019545,0.211,0.76945,-0.35632
0.072691,0.050927,0.87638,0.17624
0.031909,0.24678,0.72131,-0.73039
0.089709,0.16089,0.7494,-0.10483
0.0124,0.044218,0.94342,-0.033865
0.056091,0.16382,0.77976,-0.22119
0.057109,0.20175,0.74111,-0.39187
0.022745,0.17584,0.80142,-0.40789
0.020073,0.23327,0.74671,-0.33621
0.10549,0.13613,0.75838,-0.054191
0.085236,0.26495,0.64971,-0.22676
0.0716,0.0794,0.84904,0.06696
0.078236,0.16295,0.75882,-0.1519
0.021309,0.30387,0.67482,-0.58651
0.038782,0.12671,0.83451,-0.12744
0.081909,0.23218,0.68591,-0.26844
0.024927,0.29809,0.677,-0.49052
0.072,0.23529,0.69276,-0.19585
0.060927,0.17944,0.75975,-0.1717
0.13413,0.14547,0.72038,-0.051344
0.029691,0.1448,0.82551,-0.23746
0.086636,0.17735,0.73593,-0.17787
0.067455,0.11918,0.81336,-0.032265
0.049218,0.12144,0.82933,-0.065562
0.078673,0.12938,0.79195,0.05106
0.073582,0.11516,0.81125,-0.2622
0.069418,0.26582,0.66476,-0.34944
0.12742,0.12662,0.74596,-0.011922
0.061727,0.23922,0.69876,-0.37814
0.027036,0.22765,0.74533,-0.36021
0.14336,0.1146,0.74205,0.029175
0.050673,0.18035,0.7688,-0.28294
0.055855,0.19787,0.74627,-0.40715
0.093109,0.14773,0.75916,-0.054087
0.031018,0.22531,0.74382,-0.43354
0.056273,0.099382,0.84429,-0.13625
0.028127,0.148,0.82404,-0.21324
0.063491,0.093145,0.84347,-0.12389
0.14589,0.099145,0.7548,0.076509
0.060127,0.083636,0.85638,-0.057475
0.092164,0.11455,0.79329,0.00093273
0.11916,0.30004,0.58064,-0.29522
0.075836,0.27798,0.64613,-0.45212
0.048582,0.1944,0.75702,-0.4257
0.034327,0.18809,0.77742,-0.25383
0.095655,0.12787,0.77647,-0.025698
0.0073455,0.26973,0.72293,-0.44098
0.0592,0.24802,0.69273,-0.554
0.1396,0.30778,0.55271,-0.40719
0.078582,0.16942,0.75176,-0.18972
0.057855,0.2102,0.73195,-0.36665
0.063327,0.1222,0.81444,-0.24574
0.089745,0.12191,0.78845,-0.081771
0.083309,0.17133,0.74536,-0.15815
0.11362,0.14515,0.74124,-0.087596
0.025564,0.18255,0.79189,-0.30874
0.066382,0.2706,0.66287,-0.20682
0.080909,0.18815,0.73095,-0.2538
0.050655,0.16698,0.78242,-0.14857
0.0024,0.31707,0.68053,-0.57068
0.022673,0.31167,0.66565,-0.53128
0.035127,0.1576,0.80724,-0.25947
0.059382,0.2434,0.69722,-0.39587
0.14285,0.16351,0.69364,-0.1787
0.06,0.13658,0.80349,-0.18602
0.043018,0.13673,0.82025,-0.20763
0.074982,0.086145,0.83887,0.044391
0.049473,0.12913,0.82149,-0.246
0.0030727,0.13565,0.86127,-0.29311
0.082418,0.25415,0.66338,-0.28834
0.0040364,0.25396,0.742,-0.57139
0.075891,0.16045,0.76384,-0.2018
0.081927,0.10107,0.817,-0.2322
0.077491,0.1942,0.72829,-0.19123
0.062909,0.14429,0.79267,-0.24117
0.069418,0.16107,0.76951,-0.26976
0.079909,0.093655,0.82644,-0.0089764
0.057491,0.17511,0.76724,-0.33795
0.0029091,0.15556,0.84153,-0.33975
0.086255,0.088636,0.82511,-0.012947
0.0086,0.12367,0.86773,-0.29891
0.036309,0.066582,0.89715,-0.094976
0.029745,0.14284,0.82742,-0.26379
0.083527,0.1456,0.77087,-0.19148
0.036,0.12031,0.84384,-0.19801
0.18776,0.11353,0.69871,0.10099
0.057964,0.24918,0.69293,-0.46
0.024909,0.26965,0.70544,-0.50849
0.0974,0.11418,0.7886,-0.10434
0.063036,0.1962,0.74076,-0.26494
0.046545,0.12238,0.83107,-0.19834
0.070473,0.12704,0.80249,-0.1984
0.046327,0.17062,0.783,-0.30196
0.058455,0.20538,0.73616,-0.37733
0.12278,0.20515,0.67196,-0.19138
0.033964,0.22342,0.74262,-0.46111
0.043273,0.13456,0.82216,-0.27645
0.065836,0.16758,0.76658,-0.31666
0.070164,0.22362,0.70622,-0.23177
0.10905,0.16249,0.72845,-0.078935
0.030727,0.24969,0.71958,-0.45623
0.081673,0.18016,0.73831,-0.3775
0.060145,0.13605,0.8038,0.020276
0.082782,0.16038,0.75669,-0.15962
0.052091,0.13893,0.80898,-0.16485
0.11396,0.083127,0.8028,0.019447
0.097891,0.091364,0.81069,0.00054
0.12225,0.16875,0.709,-0.12114
0.056673,0.2416,0.70173,-0.33145
0.032418,0.18076,0.78682,-0.14074
0.032818,0.085073,0.88211,-0.095029
0.038473,0.20631,0.75529,-0.42727
0.087073,0.099564,0.81322,0.027536
0.084,0.15809,0.75791,-0.090789
0.059727,0.062327,0.87782,-0.018218
0.061055,0.14896,0.79018,-0.11576
0.12611,0.16247,0.71145,-0.12001
0.010618,0.18758,0.8018,-0.45333
0.091018,0.13844,0.77045,-0.072765
0.083291,0.070818,0.84589,-0.074184
0.030909,0.23153,0.73764,-0.51161
0.054382,0.12995,0.81567,-0.16231
0.093782,0.092273,0.81391,0.0091891
0.10116,0.078927,0.81991,0.11204
0.031491,0.13435,0.83435,-0.2941
0.027909,0.18096,0.791,-0.38011
0.054145,0.18636,0.75949,-0.33692
0.0426,0.2382,0.7192,-0.49114
0.071909,0.083745,0.84435,-0.088818
0.093273,0.16922,0.73751,-0.25503
0.084527,0.21233,0.70331,-0.34405
0.045545,0.18142,0.77296,-0.26031
0.094182,0.13589,0.76976,-0.069542
0.091036,0.15416,0.7548,-0.075371
0.090491,0.253,0.65653,-0.28094
0.027691,0.10151,0.8708,-0.23019
0.093909,0.15329,0.7528,-0.21303
0.049764,0.18044,0.76964,-0.34832
0.039727,0.21342,0.74685,-0.42309
0.040236,0.058509,0.90125,-0.018244
0.098182,0.23122,0.67044,-0.30126
0.014509,0.2626,0.72289,-0.61962
0.0084364,0.19151,0.79991,-0.44454
0.042982,0.15662,0.8004,-0.37585
0.064982,0.12269,0.81242,-0.17894
0.11916,0.062582,0.81825,0.10003
0.045764,0.21382,0.74049,-0.19687
0.0862,0.18093,0.73282,-0.18665
0.054291,0.14805,0.79771,-0.14584
0.096145,0.13745,0.7664,-0.081256
0.024218,0.086091,0.88973,-0.24947
0.071491,0.16573,0.76278,-0.16701
0.057309,0.21991,0.72282,-0.27572
0.082018,0.10787,0.81011,-0.053796
0.11705,0.16818,0.71485,-0.070024
0.10111,0.21,0.68891,-0.17279
0.026418,0.21251,0.76107,-0.4579
0.075709,0.13915,0.7852,-0.02168
0.028636,0.29715,0.67418,-0.56079
0.046,0.18769,0.76631,-0.33835
0.13093,0.20829,0.66053,-0.33987
0.071436,0.1136,0.81496,-0.13308
0.043327,0.18631,0.77036,-0.20829
0.030982,0.17595,0.79307,-0.36946
0.081691,0.074873,0.84327,-0.084902
0.068491,0.10973,0.82178,-0.095855
0.056891,0.18245,0.76065,-0.33973
0.032764,0.16578,0.80138,-0.15163
0.021418,0.22102,0.7574,-0.5047
0.0858,0.19345,0.72058,-0.20385
0.014164,0.23222,0.75369,-0.5056
0.088218,0.20818,0.70342,-0.12052
0.098218,0.11207,0.78953,-0.041702
0.048218,0.18395,0.76784,-0.28975
0.0099091,0.12393,0.86616,-0.37465
0.030764,0.094945,0.87422,-0.26247
0.12051,0.18324,0.69629,-0.030225
0.12018,0.21478,0.66515,-0.27649
0.1242,0.16258,0.71331,0.017658
0.10911,0.17764,0.71316,-0.16342
0.026764,0.22875,0.74449,-0.37457
0.042727,0.1464,0.81087,-0.23691
0.072255,0.097364,0.83038,-0.16101
0.011455,0.067745,0.9208,-0.13432
0.036745,0.24615,0.71711,-0.371
0.046309,0.10916,0.84436,-0.20161
0.025927,0.18024,0.79384,-0.2405
0.031273,0.16345,0.80544,-0.22052
0.017709,0.10964,0.87265,-0.17327
0.044418,0.1568,0.79895,-0.29674
0.038455,0.27793,0.68362,-0.60928
0.042273,0.12224,0.83549,-0.11011
0.031618,0.21133,0.75705,-0.43153
0.091436,0.20538,0.70318,-0.24528
0.10198,0.14936,0.74873,-0.015665
0.078473,0.13651,0.78502,-0.12269
0.049127,0.13029,0.82058,-0.22316
0.057636,0.17482,0.76749,-0.20618
0.0852,0.1914,0.7234,-0.31343
0.098945,0.19576,0.70529,-0.13616
0.068691,0.085055,0.84635,-0.11879
0.056255,0.14244,0.80131,-0.19621
0.018509,0.23478,0.74682,-0.45958
0.046345,0.18876,0.76489,-0.20199
0.027909,0.27595,0.69615,-0.54411
0.084,0.12295,0.79305,-0.13
0.012509,0.19322,0.79424,-0.38958
0.0264,0.15598,0.81762,-0.37807
0.095473,0.15145,0.75316,-0.15733
0.087855,0.19547,0.71667,-0.31022
0.025055,0.17935,0.79542,-0.37353
0.049036,0.1698,0.78116,-0.22102
0.076436,0.16993,0.75364,-0.13434
0.021564,0.17189,0.80655,-0.21741
0.14851,0.1364,0.71524,-0.0072055
0.040236,0.12296,0.8368,-0.28487
0.089218,0.21202,0.69876,-0.11396
0.039109,0.097309,0.86358,-0.029247
0.050527,0.23815,0.7112,-0.34349
0,0.19713,0.80287,-0.59293
0.095145,0.1744,0.73045,-0.22093
0.0864,0.13522,0.77838,-0.10731
0.022891,0.22696,0.75015,-0.51645
0.043164,0.18713,0.76971,-0.37024
0.042618,0.16805,0.78935,-0.27957
0.089,0.047691,0.86333,0.029553
0.056618,0.21262,0.73076,-0.25967
0.094255,0.18791,0.718,-0.36162
0.017891,0.16898,0.81313,-0.3007
0.020055,0.22996,0.74995,-0.44452
0.038891,0.27307,0.68804,-0.37418
0.057473,0.13575,0.80664,-0.19449
0.064836,0.32044,0.61455,-0.4232
0.18409,0.069509,0.7464,0.058691
0.066164,0.16298,0.77085,-0.17291
0.066836,0.23889,0.69427,-0.23798
0.022364,0.25315,0.72449,-0.49466
0.11838,0.21249,0.66929,-0.38843
0.094782,0.15051,0.75471,0.012769
0.095109,0.15349,0.7514,-0.10241
0.074564,0.12789,0.79755,-0.10916
0.0065273,0.25687,0.7366,-0.53929
0.070327,0.12804,0.80164,0.068487
0.093,0.19367,0.71347,-0.17149
0.10573,0.33229,0.56207,-0.36776
0.037782,0.22956,0.7328,-0.46611
0.041782,0.18716,0.77105,-0.34192
0.10405,0.1696,0.72629,-0.32583
0.0548,0.21407,0.73113,-0.27995
0.11691,0.18991,0.69307,-0.12866
0.019273,0.12184,0.85889,-0.144
0.022255,0.24238,0.73536,-0.49684
0.073145,0.28871,0.63815,-0.31561
0.18395,0.021545,0.79451,0.28281
0.051164,0.15093,0.79782,-0.27206
0.13889,0.12104,0.7402,-0.11064
0.038527,0.18244,0.77904,-0.38247
0.029927,0.20009,0.76969,-0.51415
0.082636,0.13185,0.78551,-0.058356
0.076436,0.28611,0.63745,-0.34263
0.052109,0.15462,0.79327,-0.27379
0.078327,0.18084,0.74084,-0.17996
0.096927,0.10349,0.79958,-0.11403
0.025236,0.22735,0.7472,-0.41822
0.079327,0.13967,0.78105,-0.064296
0.0388,0.12364,0.8374,-0.15563
0.023091,0.18256,0.79435,-0.33225
0.091382,0.22218,0.68644,-0.35228
0.035818,0.23435,0.72975,-0.41011
0.095055,0.21765,0.68729,-0.11559
0.065745,0.21711,0.71715,-0.26724
0.042909,0.12378,0.83324,-0.15714
0.017127,0.26836,0.71451,-0.47308
0.16905,0.062636,0.76831,0.16893
0.061582,0.14318,0.79524,-0.1667
0.098927,0.10378,0.79727,0.063536
0.067436,0.23469,0.69791,-0.37939
0.074618,0.063655,0.86173,-0.057004
0.016145,0.12911,0.85482,-0.3052
0.11671,0.18024,0.70316,-0.10103
0.036927,0.15893,0.80415,-0.17203
0.068327,0.12216,0.80935,-0.20594
0.066491,0.14895,0.78456,-0.095896
0.067745,0.15805,0.77415,-0.10713
0.11065,0.051927,0.83751,0.27543
0.071764,0.1252,0.80318,-0.17082
0.060073,0.13985,0.79973,-0.20244
0.076709,0.18476,0.73847,-0.16117
0.087364,0.11087,0.80176,0.0073527
0.028636,0.17153,0.79984,-0.3824
0.029436,0.23702,0.7336,-0.49514
0.081073,0.21878,0.70015,-0.17334
0.037764,0.23713,0.72511,-0.38511
0.039145,0.16816,0.79269,-0.32487
0.035855,0.24273,0.72142,-0.3608
0.096982,0.20549,0.69751,-0.19748
0.059509,0.087509,0.85298,-0.03542
0.022836,0.15331,0.82385,-0.27344
0.077873,0.22584,0.69644,-0.2781
0.066073,0.20964,0.72429,-0.18143
0.040764,0.24244,0.71696,-0.44355
0.052055,0.14418,0.80376,-0.11692
0.070473,0.094927,0.8346,0.021575
0.048818,0.17307,0.77811,-0.35586
0.054109,0.1542,0.79169,-0.21346
0.032618,0.098291,0.86909,-0.20512
0.077618,0.087891,0.83449,-0.10561
0.070909,0.062473,0.86662,-0.021431
0.12089,0.096036,0.7832,-0.046905
0.079473,0.064055,0.85647,0.050285
0.039182,0.046145,0.91467,-0.055616
0.036673,0.147,0.81636,-0.29192
0.12905,0.12962,0.74147,-0.13567
0.090018,0.13209,0.77789,-0.2545
0.084745,0.1376,0.77765,-0.14927
0.069055,0.15249,0.77845,-0.051745
0.092982,0.13902,0.76813,-0.19462
0.064873,0.25676,0.67829,-0.45723
0.084818,0.178,0.73733,-0.22538
0.064218,0.16525,0.77053,-0.26523
0.025964,0.13989,0.83422,-0.37564
0.080345,0.1396,0.78005,-0.063371
0.025927,0.13076,0.84331,-0.19443
0.085327,0.19096,0.72367,-0.22582
0.045055,0.15071,0.80424,-0.20763
0.097455,0.077473,0.82522,-0.066225
0.052,0.10349,0.84451,-0.09954
0.11875,0.18969,0.69156,-0.29633
0.10511,0.15064,0.74425,-0.1147
0.065964,0.2422,0.69184,-0.38321
0.019964,0.23464,0.7454,-0.40806
0.13945,0.097909,0.76276,-0.13695
0.059145,0.26076,0.68009,-0.3927
0.078273,0.094236,0.82764,-0.071753
0.075491,0.14844,0.77607,-0.19688
0.049418,0.18865,0.76198,-0.25476
0.087073,0.12718,0.78593,-0.26997
0.013382,0.21024,0.77653,-0.30533
0.054564,0.13531,0.81013,-0.1488
0.057073,0.15945,0.78347,-0.079156
0.066418,0.16918,0.76422,-0.28302
0.043327,0.18047,0.77638,-0.42378
0.041145,0.10242,0.85651,-0.18209
0.0952,0.24156,0.66333,-0.28846
0.15331,0.12465,0.72213,0.065615
0.0944,0.14502,0.76075,-0.062371
0.060836,0.27104,0.66829,-0.51953
0.022527,0.10445,0.87302,-0.23485
0.068182,0.1524,0.77951,-0.062305
0.0069091,0.11224,0.88085,-0.36609
0.054164,0.15729,0.78855,-0.22192
0.033218,0.31044,0.65635,-0.41873
0.0636,0.084982,0.85142,-0.049158
0.033836,0.23145,0.73471,-0.396
0.056982,0.28113,0.66189,-0.4212
0.10793,0.11809,0.77369,-0.17338
0.061145,0.14593,0.79287,-0.30309
0,0.17575,0.82425,-0.52194
0.084836,0.19225,0.72291,-0.17552
0.12733,0.19002,0.68264,-0.12452
0.021673,0.21215,0.76604,-0.49174
0.045909,0.098473,0.85562,-0.16794
0.08,0.13038,0.78962,-0.068805
0.099091,0.26718,0.63369,-0.40574
0.15002,0.14664,0.70347,0.050073
0.066673,0.14445,0.7886,-0.21238
0.043055,0.17227,0.78482,-0.27209
0.011782,0.15813,0.83009,-0.36301
0.054636,0.24013,0.70536,-0.40373
0.094855,0.16345,0.74184,-0.072531
0.086545,0.10245,0.81107,-0.093964
0.015018,0.25447,0.73051,-0.47464
0.10189,0.20738,0.69078,-0.31
0.048764,0.15456,0.79667,-0.1289
0.055382,0.18315,0.76147,-0.317
0.087709,0.11982,0.79229,-0.013393
0.012655,0.17724,0.8102,-0.27389
0.048436,0.12733,0.82424,-0.37267
0.053673,0.19887,0.74764,-0.46672
0.094545,0.27711,0.62818,-0.47582
0.075964,0.099036,0.825,0.10847
0.15491,0.10115,0.74395,0.14396
0.069127,0.171,0.75987,-0.18997
0.028509,0.079855,0.89164,-0.11015
0.035491,0.21304,0.75165,-0.38746
0.031945,0.20436,0.76367,-0.43472
0.079818,0.20131,0.71887,-0.24953
0.038218,0.21696,0.74482,-0.34357
0.027673,0.11005,0.86238,-0.24872
0.10716,0.13376,0.75907,-0.094125
0.046545,0.25511,0.69853,-0.37094
0.027618,0.16195,0.81036,-0.46646
0.027527,0.24127,0.7312,-0.41228
0.126,0.17476,0.69909,-0.089393
0.043545,0.29335,0.66329,-0.59213
0.029055,0.12718,0.84376,-0.32636
0.020382,0.20382,0.7758,-0.43669
0.020545,0.18747,0.79198,-0.34812
0.091036,0.0768,0.83216,0.054887
0.094145,0.11785,0.78771,-0.2209
0.078709,0.20271,0.71876,-0.25545
0.056709,0.26671,0.67664,-0.37859
0.017364,0.18476,0.79793,-0.42898
0.040182,0.18491,0.77491,-0.31939
0.082909,0.16455,0.75267,-0.12272
0.064945,0.25085,0.6842,-0.27874
0.053582,0.23502,0.7114,-0.52648
0.067018,0.25202,0.68078,-0.45529
0.0094182,0.084545,0.90611,-0.22529
0.087218,0.080727,0.83205,-0.083755
0.035109,0.10225,0.86271,-0.18386
0.087636,0.20238,0.70998,-0.26347
0.13789,0.15418,0.70789,0.00226
0.077345,0.29164,0.63113,-0.35354
0.033309,0.18724,0.77945,-0.29178
0.056818,0.30416,0.63918,-0.51125
0.064055,0.21996,0.71598,-0.30523
0.017873,0.20095,0.78118,-0.46819
0.11905,0.27145,0.60955,-0.26727
0.038109,0.18656,0.77533,-0.32263
0.035545,0.18253,0.78205,-0.23715
0.085909,0.22653,0.68775,-0.38944
0.089945,0.12187,0.78822,-0.16344
0.025764,0.16058,0.81376,-0.27252
0.1348,0.12862,0.73658,0.022836
0.0074727,0.092545,0.89998,-0.33055
0.017145,0.11498,0.86787,-0.24208
0.018855,0.18255,0.7986,-0.31075
0.025691,0.27169,0.70262,-0.63334
0.051909,0.20704,0.74105,-0.30395
0.10355,0.12605,0.77045,-0.089313
0.034927,0.23615,0.72895,-0.36337
0.052509,0.2796,0.668,-0.41285
0.069273,0.085,0.84573,-0.088196
0.095309,0.16096,0.74385,-0.26238
0.041364,0.22445,0.73418,-0.33133
0.072327,0.18765,0.73989,-0.15553
0.0067636,0.11815,0.87509,-0.2228
0.063982,0.15364,0.78242,-0.23553
0.037309,0.27996,0.68293,-0.45158
0.028909,0.097691,0.8734,-0.10875
0.066636,0.31389,0.61965,-0.59899
0.088909,0.18425,0.72685,-0.2987
0.0392,0.17056,0.79036,-0.32489
0.049,0.25113,0.69993,-0.43738
0.084218,0.22045,0.69522,-0.30732
0.078709,0.19316,0.72813,-0.21681
0.035673,0.10369,0.86065,-0.12187
0.0452,0.22544,0.72936,-0.42357
0.065364,0.30542,0.62905,-0.37379
0.059891,0.19487,0.74524,-0.32019
0,0.25302,0.74698,-0.42797
0.033455,0.097073,0.86947,-0.18312
0.035091,0.17051,0.7944,-0.28238
0.080091,0.24145,0.67864,-0.30523
0.076964,0.17616,0.74725,-0.26431
0.023091,0.14593,0.83116,-0.33423
0.15418,0.17411,0.67171,-0.06588
0.080345,0.061709,0.85791,0.054985
0.081091,0.13,0.78882,-0.011078
0.020436,0.12591,0.85358,-0.25724
0.055745,0.13727,0.80698,-0.26397
0.10056,0.10071,0.79851,-0.025267
0.085764,0.12453,0.78985,-0.036916
0.060273,0.086527,0.85336,-0.12035
0.049145,0.089236,0.86162,-0.089127
0.11165,0.10596,0.78238,-0.086562
0.034618,0.12542,0.84002,-0.13428
0.027982,0.057909,0.91411,-0.10507
0.074764,0.22087,0.7044,-0.23806
0.054709,0.090982,0.85436,-0.079985
0.058309,0.096491,0.8452,-0.085211
0.052545,0.24071,0.70656,-0.47212
0.06,0.11173,0.82827,-0.21284
0.047673,0.115,0.83724,-0.26
0.15909,0.0894,0.75149,0.058804
0.013745,0.16375,0.82251,-0.31898
0.019964,0.10271,0.87744,-0.20066
0.093582,0.17158,0.735,-0.083916
0.016964,0.25898,0.72405,-0.46073
0.065018,0.014055,0.92093,0.15731
0.055782,0.197,0.74736,-0.40265
0.097073,0.19285,0.71007,-0.25875
0.049127,0.10787,0.84307,-0.11662
0.0452,0.28044,0.67451,-0.54632
0.0064545,0.19516,0.79847,-0.4378
0.058945,0.1878,0.75307,-0.28135
0.022273,0.15553,0.8222,-0.20016
0.043691,0.22702,0.72935,-0.438
0.069745,0.19251,0.7376,-0.20047
0.035691,0.22695,0.73735,-0.27196
0.076782,0.1766,0.74655,-0.19652
0.0090545,0.15049,0.84045,-0.27124
0.13093,0.19111,0.678,-0.18617
0.049055,0.15205,0.79904,-0.22214
0.074491,0.054545,0.87096,0.12348
0.12684,0.0568,0.81636,0.17985
0.056927,0.26547,0.67758,-0.26599
0.067945,0.28993,0.64242,-0.57714
0.0508,0.20525,0.74413,-0.35988
0.02,0.16829,0.81171,-0.29977
0.10464,0.11971,0.77565,-0.12487
0.076055,0.1684,0.75555,-0.15924
0.055073,0.13656,0.80847,-0.20224
0.052873,0.10998,0.83715,-0.062155
0.073291,0.23158,0.69513,-0.26321
0.0326,0.12582,0.84144,-0.23966
0.067945,0.21173,0.72033,-0.23354
0.071891,0.11604,0.81205,0.010847
0.017091,0.13947,0.84336,-0.34449
0.055673,0.13002,0.81431,-0.12395
0.065473,0.15556,0.77896,-0.19447
0.049782,0.21156,0.73869,-0.45823
0.10669,0.14829,0.74502,-0.20885
0.079345,0.11691,0.80375,-0.067951
0.1272,0.090127,0.78267,0.035113
0.064527,0.15115,0.7844,-0.099773
0.010327,0.30365,0.68602,-0.39262
0.057291,0.13138,0.81118,-0.056336
0.042764,0.27667,0.68056,-0.51282
0.10896,0.18722,0.70382,-0.035067
0.0578,0.20531,0.73689,-0.35359
0.049818,0.24091,0.70925,-0.27972
0.10244,0.20245,0.69524,-0.17778
0.080945,0.20822,0.711,-0.30258
0.11295,0.20482,0.68224,-0.41273
0.064364,0.29016,0.64547,-0.45054
0.057,0.13769,0.80547,-0.13402
0.048382,0.1732,0.77853,-0.28581
0.021091,0.17585,0.80305,-0.37147
0.099909,0.30484,0.59513,-0.39356
0.063982,0.22984,0.70618,-0.54646
0.052764,0.23953,0.70764,-0.42382
0.058309,0.18609,0.7556,-0.21577
0.056,0.11956,0.82444,-0.15215
0.038073,0.26675,0.69516,-0.42744
0,0.30204,0.69796,-0.62317
0.029091,0.11636,0.85465,-0.19673
0.037436,0.1502,0.81244,-0.36525
0.0048,0.11158,0.88362,-0.41672
0.052764,0.18944,0.75785,-0.35074
0.046709,0.055218,0.89807,0.00138
0.0634,0.13667,0.79993,-0.027124
0.038309,0.14127,0.82042,-0.17631
0.094873,0.17065,0.73436,-0.1761
0.029255,0.19855,0.77236,-0.36786
0.061,0.18765,0.75135,-0.48939
0.1578,0.027527,0.81467,0.223
0.046,0.20591,0.74807,-0.41722
0.097218,0.19216,0.71045,-0.11702
0.019109,0.2468,0.73411,-0.52995
0.056109,0.11756,0.82633,-0.087433
0.016218,0.28578,0.69789,-0.51744
0.069709,0.26525,0.66504,-0.5004
0.096745,0.056527,0.84673,0.078004
0.10689,0.060564,0.83242,0.055736
0.084109,0.12133,0.79456,-0.0045327
0.0062364,0.13264,0.86113,-0.26326
0.051782,0.14296,0.80535,-0.13804
0.035255,0.14935,0.8154,-0.26076
0.049964,0.14375,0.80629,-0.26153
0.010055,0.16935,0.8206,-0.37219
0.058655,0.14158,0.79969,-0.23315
0.0704,0.21365,0.71625,-0.42098
0.037109,0.11464,0.84825,-0.17943
0.072091,0.25613,0.67195,-0.33814
0.11933,0.11627,0.76422,0.011785
0.082655,0.23604,0.68109,-0.39595
0.038036,0.081855,0.88011,-0.11923
0.053945,0.13113,0.81493,-0.29789
0.074509,0.0908,0.83469,0.039536
0.010836,0.11887,0.87029,-0.34988
0.016127,0.14604,0.83784,-0.28475
0.070073,0.089182,0.84075,-0.00057091
0.10282,0.12576,0.77142,-0.11642
0.12238,0.13402,0.7436,-0.12064
0.064055,0.17478,0.76116,-0.27599
0.032982,0.14647,0.8204,-0.25475
0.18345,0.080982,0.73556,0.11085
0.10725,0.13284,0.75991,-0.061831
0.068109,0.047836,0.88409,0.12188
0.070382,0.15167,0.77795,-0.23351
0.096164,0.2016,0.7024,-0.27576
0.050055,0.25991,0.69004,-0.46439
0.078564,0.17944,0.7422,-0.23228
0.0196,0.15435,0.82605,-0.36251
0.054509,0.14815,0.79736,-0.33815
0.1206,0.058873,0.82064,0.18717
0.040982,0.10351,0.85551,-0.041984
0.048945,0.1546,0.79629,-0.22643
0.050927,0.18662,0.76233,-0.37305
0.073818,0.093727,0.83264,-0.11055
0.086109,0.16865,0.74509,-0.1588
0.14042,0.11513,0.74433,0.11867
0.034982,0.18171,0.78331,-0.35697
0.063927,0.14382,0.79225,-0.1026
0.0954,0.051564,0.85304,0.13428
0.046855,0.16033,0.79265,-0.26588
0.10511,0.12665,0.76824,-0.15658
0.032364,0.18609,0.78155,-0.24993
0.10309,0.12562,0.77129,-0.10358
0.10262,0.18109,0.71636,-0.15385
0.019745,0.24845,0.7318,-0.56671
0.034073,0.13109,0.83484,-0.19833
0.049218,0.18264,0.76815,-0.36997
0.0524,0.20976,0.73789,-0.31466
0.088073,0.19869,0.71311,-0.33401
0.084673,0.25285,0.66249,-0.56056
0.030327,0.26044,0.70922,-0.35856
0.10725,0.12349,0.76945,-0.045258
0.069164,0.13844,0.79247,-0.10597
0.11902,0.11116,0.76996,0.085822
0.071018,0.15115,0.77776,-0.35848
0.088073,0.23096,0.68084,-0.3843
0.077,0.039036,0.88418,0.093671
0.0332,0.16342,0.80338,-0.35573
0.089309,0.1708,0.73985,-0.12661
0.065873,0.15069,0.78356,-0.12628
0.076527,0.21262,0.71071,-0.33903
0.098618,0.24609,0.65524,-0.41717
0.14929,0.16082,0.68989,0.08524
0.076291,0.17907,0.74464,-0.10889
0.031255,0.28951,0.67936,-0.50765
0.073255,0.12751,0.7994,-0.117
0.0696,0.24833,0.68207,-0.28627
0.064891,0.094073,0.84104,-0.097693
0.027727,0.18996,0.78231,-0.33469
0.019455,0.13438,0.84616,-0.24045
0.058691,0.22149,0.71982,-0.36335
0.053145,0.1676,0.77913,-0.28291
0.044582,0.14256,0.81285,-0.16017
0.19333,0.075764,0.73091,0.14459
0.0486,0.13485,0.81645,-0.26667
0.022127,0.16571,0.81218,-0.30241
0.12865,0.088291,0.78324,0.15104
0.015964,0.203,0.78096,-0.40775
0.083345,0.097655,0.819,-0.16025
0.097891,0.15587,0.74596,-0.18014
0.085873,0.17087,0.74325,-0.41955
0.16436,0.057473,0.77824,0.18974
0.091727,0.071836,0.83644,-0.096604
0.084582,0.17893,0.73649,-0.12841
0.093436,0.076782,0.82984,-0.024702
0.11176,0.16402,0.72422,-0.13512
0.070418,0.14458,0.785,-0.097465
0.074309,0.18847,0.73722,-0.23728
0.047691,0.17095,0.78136,-0.2612
0.082873,0.16178,0.75555,-0.30118
0.0085455,0.12585,0.8656,-0.28434
0.055673,0.19618,0.74816,-0.29853
0.044691,0.19155,0.76376,-0.3744
0.043818,0.080182,0.876,-0.021811
0.090109,0.15462,0.75535,-0.18301
0.0584,0.16007,0.7816,-0.23704
0.098,0.12278,0.77909,0.02504
0.022982,0.15805,0.81896,-0.32974
0.0532,0.12867,0.81813,-0.4042
0.026545,0.067327,0.90613,-0.0016091
0.052745,0.20867,0.73858,-0.34889
0.022582,0.29776,0.67969,-0.49317
0.055564,0.12951,0.81493,-0.18726
0.080255,0.21229,0.70745,-0.26834
0.10644,0.15211,0.74145,0.11872
0.091018,0.19142,0.71762,-0.23858
0.0738,0.20336,0.72284,-0.46247
0.11371,0.11171,0.77458,-0.047793
0.032745,0.34091,0.62635,-0.59071
0.050927,0.15498,0.7942,-0.23461
0.097382,0.17455,0.728,-0.10787
0.071073,0.18649,0.74236,-0.36137
0.11404,0.093618,0.79229,-0.097962
0.12591,0.14127,0.73291,-0.051475
0.18493,0.13076,0.68431,0.052549
0.11516,0.18909,0.69593,-0.22911
0.062055,0.13633,0.80167,-0.25997
0.074255,0.148,0.77775,-0.23808
0.095709,0.10942,0.79487,-0.13481
0.076909,0.20844,0.71484,-0.40551
0.065018,0.15264,0.78235,-0.19332
0.014636,0.16522,0.82015,-0.41761
0.057673,0.19209,0.75024,-0.20623
0.038764,0.15647,0.80476,-0.20245
0.028491,0.10105,0.87045,-0.14568
0.057164,0.17565,0.76718,-0.31044
0.047964,0.14671,0.80538,-0.25976
0.063509,0.20011,0.73645,-0.33527
0.11744,0.20124,0.68151,-0.27537
0.078236,0.2108,0.71113,-0.12016
0.080709,0.11524,0.80415,-0.047038
0.0774,0.16213,0.76047,-0.25965
0.084091,0.13727,0.77864,-0.065665
0.079127,0.33115,0.58958,-0.56625
0.021582,0.25631,0.72211,-0.57467
0.12085,0.0766,0.8024,-0.07936
0.073255,0.1664,0.76035,-0.20037
0.085745,0.097673,0.8166,0.011507
0.019,0.25189,0.72915,-0.48023
0.10102,0.16907,0.72982,-0.22579
0.12584,0.14825,0.72591,-0.072889
0.13475,0.17509,0.69016,-0.14836
0.065109,0.223,0.71175,-0.37178
0.036236,0.18864,0.77518,-0.37033
0.1018,0.161,0.73705,-0.070825
0.070927,0.18393,0.74516,-0.21411
0.042691,0.179,0.77831,-0.36773
0.10298,0.13022,0.76689,0.043489
0.053018,0.20678,0.74016,-0.37488
0.024109,0.10467,0.87118,-0.23322
0.029418,0.18064,0.78995,-0.44854
0.048473,0.13865,0.81273,-0.25125
0.0073091,0.15351,0.83918,-0.42782
0.049164,0.25162,0.69918,-0.45291
0.030036,0.27607,0.69389,-0.46826
0.023,0.18116,0.79575,-0.3274
0.099764,0.23133,0.669,-0.30039
0.081345,0.14382,0.77485,-0.14218
0.080691,0.10358,0.81573,-0.075809
0.0406,0.12587,0.8336,-0.24231
0.0474,0.1662,0.78633,-0.24003
0.053509,0.175,0.77149,-0.41327
0.075836,0.13569,0.78847,-0.24543
0.031582,0.16816,0.80025,-0.35973
0.12718,0.19525,0.67729,-0.24889
0.1018,0.18196,0.71638,-0.2835
0.12387,0.16751,0.70862,-0.16098
0.10125,0.20971,0.68869,-0.28782
0.16407,0.1662,0.6696,-0.032667
0.0188,0.24305,0.73811,-0.37496
0.109,0.18918,0.70173,-0.079787
0.090418,0.21182,0.69776,-0.33211
0.011091,0.29351,0.6954,-0.57341
0.018364,0.13325,0.84838,-0.2093
0.1194,0.14275,0.73795,-0.12154
0.030873,0.13456,0.83456,-0.20515
0.093218,0.079273,0.82751,0.038458
0.044382,0.13,0.82562,-0.317
0.081164,0.029636,0.8892,0.067224
0.017236,0.089218,0.89355,-0.20728
0.083091,0.10253,0.81438,-0.053496
0.073509,0.14625,0.78009,-0.32989
0.064164,0.21885,0.71698,-0.25741
0.14867,0.18169,0.6694,-0.18675
0.064709,0.12305,0.81224,-0.10662
0,0.13756,0.86244,-0.29262
0.050073,0.26551,0.68442,-0.35012
0.038109,0.11202,0.84989,-0.16789
0.017636,0.19336,0.789,-0.3719
0.070218,0.10631,0.82347,0.020764
0.094036,0.16276,0.74307,-0.26501
0.042218,0.18505,0.77256,-0.12919
0.073055,0.19378,0.73307,-0.38335
0.098073,0.121,0.7808,-0.096655
0.10795,0.055709,0.83631,0.079009
0.098418,0.14393,0.75742,-0.13226
0.0282,0.086582,0.8852,-0.17849
0.064309,0.16145,0.77431,-0.18945
0.042436,0.18862,0.76895,-0.26726
0.039036,0.11587,0.84515,-0.14329
0.10078,0.071036,0.82818,0.053296
0.015745,0.21562,0.76873,-0.37383
0.021909,0.13225,0.84584,-0.26086
0.058491,0.12209,0.81951,-0.20948
0.035345,0.13387,0.83078,-0.20274
0.027727,0.15876,0.81355,-0.26968
0.086364,0.10151,0.81227,-0.016053
0.050255,0.073436,0.87631,-0.097469
0.086673,0.16229,0.75116,-0.1437
0.12325,0.066836,0.81009,0.13406
0.076618,0.092691,0.83047,0.054282
0.14175,0.039618,0.8184,0.16558
0.050018,0.15798,0.792,-0.19171
0.085327,0.046382,0.86829,-0.0064455
0.049982,0.12789,0.82213,-0.21252
0.072582,0.17353,0.75373,-0.1815
0.088,0.062873,0.84913,0.15436
0.0093818,0.1984,0.79222,-0.34805
0.0083273,0.14365,0.848,-0.31105
0.0634,0.14293,0.79385,-0.20603
0.085091,0.17518,0.73958,-0.18695
0.061091,0.15713,0.78178,-0.22001
0.033473,0.15262,0.81391,-0.36928
0.14233,0.22518,0.63235,-0.18066
0.031818,0.11027,0.85791,-0.16498
0.019782,0.12607,0.85415,-0.26531
0.12256,0.15762,0.72,-0.10562
0.034782,0.22056,0.74467,-0.34087
0.069982,0.10775,0.82216,-0.16269
0.079164,0.13665,0.7842,-0.13902
0.0468,0.15355,0.79949,-0.25114
0.025618,0.18829,0.78609,-0.28052
0.030164,0.14211,0.82773,-0.18668
0.050564,0.18067,0.76876,-0.27427
0.10182,0.15835,0.73956,-0.13437
0.10835,0.067273,0.82438,0.13122
0.038509,0.189,0.77249,-0.33245
0.098164,0.12613,0.77589,-0.067005
0.011509,0.11289,0.8756,-0.21706
0.072618,0.17391,0.75365,-0.20487
0.037491,0.13587,0.82656,-0.20281
0.074382,0.17435,0.75124,-0.2091
0.058364,0.20282,0.73882,-0.23209
0.050691,0.1242,0.82511,-0.23051
0.10005,0.12158,0.77858,-0.081627
0.072,0.065473,0.86253,0.11382
0.010436,0.19433,0.79524,-0.42874
0.075309,0.082855,0.84189,-0.064587
0.033073,0.14415,0.82285,-0.24883
0.041018,0.13485,0.82413,-0.26204
0.030382,0.12995,0.83967,-0.28652
0.1326,0.15304,0.71436,-0.22726
0.045455,0.10264,0.85191,-0.28676
0.12851,0.072691,0.79862,0.23534
0.17,0.11889,0.71111,0.12765
0.13878,0.2224,0.63882,-0.13307
0.0676,0.127,0.80516,-0.19391
0.076273,0.15115,0.77285,-0.092927
0.039509,0.22205,0.73844,-0.31176
0.049545,0.17455,0.77591,-0.32683
0.12067,0.21413,0.6652,-0.13207
0.117,0.082855,0.80015,0.0023073
0.030473,0.13222,0.83731,-0.22102
0.011382,0.22845,0.76031,-0.56442
0.078091,0.23615,0.68593,-0.36246
0.015236,0.24155,0.74322,-0.45067
0.0542,0.069618,0.87618,-0.032824
0.085309,0.21904,0.69565,-0.41757
0.044491,0.27209,0.68327,-0.46639
0,0.1306,0.8694,-0.33829
0.0502,0.16609,0.78365,-0.17892
0.088455,0.16247,0.74907,-0.16299
0.10627,0.15584,0.73791,-0.12189
0.049491,0.11696,0.83355,-0.19481
0.060436,0.12547,0.81409,-0.17493
0.033964,0.090655,0.87535,-0.086418
0.032582,0.1788,0.78862,-0.29632
0.014509,0.31724,0.66827,-0.69185
0.035145,0.19238,0.77247,-0.33932
0.036018,0.22215,0.74184,-0.38405
0.021109,0.22395,0.75515,-0.50466
0.086327,0.19336,0.72031,-0.23096
0.066345,0.14664,0.78702,-0.076707
0.086618,0.14389,0.7696,-0.0031655
0.041764,0.13024,0.82805,-0.24007
0.016473,0.21658,0.76695,-0.45829
0.030909,0.20289,0.7662,-0.36285
0.038691,0.095673,0.86564,-0.18319
0.094545,0.12636,0.77909,-0.19156
0.050545,0.22589,0.72356,-0.28853
0.086382,0.11771,0.79598,-0.24108
0.0086727,0.13358,0.85769,-0.21707
0.034855,0.14815,0.81684,-0.29945
0.060382,0.14876,0.79085,-0.27027
0.11547,0.096691,0.78773,0.0020927
0.044927,0.13356,0.82167,-0.19934
0.025655,0.077727,0.89678,-0.16155
0.072782,0.095691,0.83165,0.0023709
0.049927,0.14007,0.81013,-0.21339
0.043291,0.071018,0.88569,0.020556
0.054618,0.0976,0.84778,-0.17727
0.0087091,0.18758,0.80371,-0.40547
0.048745,0.10822,0.84313,-0.11998
0.10435,0.13209,0.76356,-0.10071
0.019618,0.28515,0.69527,-0.47423
0.019945,0.11838,0.86167,-0.24867
0.029673,0.15998,0.81025,-0.21975
0.082455,0.19549,0.72202,-0.26848
0.047782,0.23587,0.71635,-0.34518
0.011127,0.14762,0.84125,-0.20565
0.11615,0.15304,0.73071,-0.15852
0.019927,0.080709,0.89936,-0.16356
0.033782,0.050182,0.91604,-0.018322
0.11942,0.19007,0.69051,-0.1469
0.10065,0.25704,0.64231,-0.32404
0.058564,0.18238,0.75905,-0.1513
0.014745,0.21111,0.77415,-0.30055
0.080582,0.057182,0.86224,0.013876
0.052836,0.12145,0.82571,-0.33075
0.025818,0.10135,0.87293,-0.13553
0.034636,0.10178,0.86365,-0.075555
0.13098,0.10676,0.76236,0.14772
0.062218,0.14438,0.79358,-0.21562
0.18947,0.10022,0.71045,0.2158
0.12696,0.094636,0.7784,0.0589
0.088891,0.12809,0.78318,-0.015838
0.0094,0.26182,0.72885,-0.43825
0.063691,0.162,0.77431,-0.21409
0.072164,0.105,0.82291,-0.088024
0.14111,0.051218,0.80782,0.14463
0.070982,0.14431,0.78462,-0.13541
0.048909,0.17338,0.77771,-0.3141
0.10038,0.19793,0.70175,-0.23984
0.039891,0.14355,0.81656,-0.27568
0.068745,0.11344,0.81785,-0.20868
0.047364,0.15316,0.79933,-0.25213
0.10049,0.13867,0.76084,0.019996
0.053491,0.31836,0.62815,-0.41591
0.060509,0.16127,0.77822,-0.26701
0.11153,0.0574,0.83107,0.13871
0.017255,0.16613,0.81678,-0.37845
0.090036,0.23005,0.67998,-0.36151
0.10491,0.1448,0.75056,-0.10581
0.11676,0.18144,0.7018,-0.13222
0.095964,0.1784,0.72564,-0.11692
0.041673,0.18805,0.77027,-0.2654
0.029727,0.18525,0.78502,-0.31369
0.13936,0.15651,0.70413,-0.083053
0.10284,0.0466,0.85056,0.12837
0.068182,0.13116,0.80051,-0.17501
0.018782,0.1234,0.85782,-0.15675
0.031164,0.076673,0.89216,-0.045087
0.016764,0.1842,0.79904,-0.32268
0.081891,0.22124,0.69687,-0.22076
0.11709,0.13675,0.74616,-0.092789
0.049345,0.076418,0.87424,-0.15772
0.025618,0.20355,0.77067,-0.44493
0.12207,0.079055,0.79887,0.072853
0.047382,0.18847,0.76427,-0.27362
0.089091,0.10527,0.80565,-0.06046
0.059618,0.12405,0.81624,-0.19565
0.069509,0.18485,0.74564,-0.17406
0.024691,0.23218,0.74313,-0.43701
0.057745,0.098509,0.84385,-0.12446
0.041709,0.17187,0.78675,-0.40583
0.11109,0.16547,0.72347,-0.015056
0.057509,0.039691,0.9028,-0.0055745
0.1302,0.2564,0.61347,-0.25484
0.047473,0.19438,0.75796,-0.28594
0.11387,0.15916,0.72702,-0.10121
0.079055,0.12644,0.79451,-0.022578
0.12411,0.13785,0.73827,0.053873
0.080545,0.16944,0.74993,-0.28741
0.0078364,0.11075,0.88142,-0.28178
0.038818,0.075145,0.88604,-0.096045
0.080418,0.17955,0.74004,-0.22291
0.0706,0.10476,0.82473,-0.044491
0.032818,0.31382,0.65336,-0.5626
0.045327,0.066873,0.8878,0.023547
0.046927,0.21,0.74307,-0.35317
0.057673,0.059345,0.88295,-0.080171
0.0079091,0.23931,0.75278,-0.47764
0.042891,0.18836,0.76875,-0.23986
0.056873,0.14525,0.79789,-0.23213
0.10395,0.12955,0.76656,-0.11402
0.079309,0.10691,0.81373,-0.071045
0.061491,0.24327,0.69535,-0.30829
0.018255,0.18407,0.79767,-0.44853
0.1018,0.15825,0.73985,-0.0033564
0.031127,0.18773,0.78116,-0.30621
0.026636,0.17589,0.79747,-0.31393
0.017327,0.12156,0.86111,-0.31148
0.068182,0.16824,0.7634,-0.4154
0.083509,0.13398,0.78251,-0.063045
0.038073,0.10004,0.86202,-0.17345
0.044764,0.11496,0.84013,-0.048676
0.025818,0.2918,0.68231,-0.52619
0.042127,0.16402,0.79385,-0.31617
0.023509,0.12896,0.8474,-0.31589
0.052891,0.22835,0.71876,-0.34987
0.040345,0.27936,0.68049,-0.5096
0.10875,0.077018,0.81413,0.15972
0.10605,0.25022,0.64373,-0.20395
0.10256,0.11656,0.78073,-0.071518
0.059091,0.16464,0.7762,-0.21762
0.020109,0.22705,0.75315,-0.57114
0.059491,0.21764,0.72289,-0.28347
0.031291,0.16287,0.80584,-0.30125
0.068855,0.13807,0.79309,-0.10763
0.059673,0.16102,0.77931,-0.12853
0.046527,0.20922,0.74429,-0.32286
0,0.14876,0.85124,-0.29369
0.073818,0.14024,0.78609,-0.20027
0.071345,0.1532,0.77549,-0.15814
0.072127,0.222,0.70589,-0.34568
0.098618,0.20009,0.70129,-0.195
0.074436,0.19595,0.72951,-0.28425
0.086473,0.18467,0.72885,-0.16639
0.070855,0.2004,0.72875,-0.26588
0.043382,0.187,0.76962,-0.29364
0.034691,0.085291,0.88002,-0.076304
0.018982,0.27865,0.70236,-0.52915
0.029036,0.18978,0.78113,-0.34669
0.063564,0.12684,0.80958,-0.24479
0.098455,0.15076,0.75078,-0.038385
0.0031818,0.13296,0.86385,-0.33242
0.113,0.11344,0.77356,0.019296
0.045109,0.21036,0.74453,-0.30574
0.0446,0.10278,0.85256,-0.27356
0.026309,0.18271,0.79098,-0.35201
0.075891,0.13682,0.78729,-0.05912
0.074236,0.14618,0.77958,-0.077338
0.14967,0.050709,0.79962,0.18468
0.046709,0.14909,0.8042,-0.24583
0.079545,0.20471,0.71589,-0.41735
0.0087091,0.14513,0.84616,-0.26034
0.025273,0.23382,0.74089,-0.44123
0.084473,0.093073,0.82245,0.070731
0.067418,0.10451,0.82807,-0.026407
0.1138,0.13915,0.74702,-0.12698
0.10811,0.085491,0.80635,-0.059765
0.0464,0.15155,0.80187,-0.17523
0.043036,0.091873,0.86509,-0.13443
0.075364,0.21795,0.70669,-0.17508
0.10307,0.11471,0.78227,0.036551
0.063582,0.061473,0.87495,-0.0028564
0.0098727,0.19647,0.79365,-0.41247
0.13487,0.069236,0.79605,0.038725
0.14858,0.041491,0.80993,0.29162
0.070545,0.16004,0.76938,-0.12161
0.057473,0.16027,0.78195,-0.14979
0.049436,0.19942,0.75115,-0.39224
0.040182,0.10045,0.85936,-0.10229
0.099891,0.11351,0.7866,0.11341
0.013218,0.16755,0.81909,-0.4462
0.089164,0.10058,0.81025,-0.10879
0.0346,0.31015,0.65525,-0.73582
0.068564,0.17745,0.75375,-0.29634
0.075782,0.056582,0.86764,0.00019455
0.12387,0.064109,0.81202,0.15572
0.033436,0.093018,0.87338,-0.13297
0.085527,0.16929,0.74524,-0.28678
0.016655,0.13298,0.85036,-0.28307
0.092382,0.15622,0.75142,-0.29663
0.054145,0.16533,0.78053,-0.22493
0.017164,0.079273,0.90338,-0.23557
0.044618,0.092345,0.86318,-0.1807
0.071436,0.056145,0.87244,0.087125
0.058436,0.087982,0.85355,-0.05884
0.029182,0.099109,0.87171,-0.2111
0.070345,0.10544,0.82425,-0.13464
0.078164,0.096036,0.82555,-0.12235
0.095655,0.15195,0.75242,-0.13858
0.025091,0.21182,0.76327,-0.37782
0.032745,0.13944,0.82798,-0.27168
0.030073,0.23707,0.73285,-0.30915
0.079855,0.18049,0.73976,-0.27125
0.066109,0.15531,0.77849,-0.1414
0.0312,0.12649,0.84231,-0.19981
0.069091,0.096036,0.83487,0.022942
0.1094,0.16051,0.72991,-0.17162
0.024764,0.19062,0.78462,-0.30576
0.046182,0.10847,0.84535,-0.11341
0.045673,0.14467,0.80965,-0.22751
0.029127,0.19769,0.77304,-0.41797
0.054709,0.14269,0.80262,-0.24186
0.029145,0.18685,0.78376,-0.42312
0.10575,0.099036,0.79522,-0.031889
0.10627,0.0626,0.83129,0.096216
0.13569,0.11698,0.74733,0.032693
0.10636,0.18265,0.71098,-0.15834
0.092745,0.21511,0.692,-0.2698
0.0066182,0.16911,0.82427,-0.31253
0.11495,0.095364,0.78969,0.036469
0.041527,0.0716,0.88698,-0.088249
0.050818,0.12513,0.82415,-0.077498
0.0416,0.102,0.8564,-0.064475
0.091564,0.0986,0.80969,-0.0024164
0.10567,0.047709,0.84662,0.12036
0.083055,0.12867,0.78816,-0.13951
0.033782,0.13178,0.83444,-0.31766
0.071509,0.13218,0.79644,-0.095536
0.098618,0.057727,0.84365,0.035395
0.10107,0.094618,0.80442,-0.043555
0.045636,0.084636,0.86973,-0.14889
0.098945,0.16136,0.73969,-0.15745
0.039073,0.13922,0.82164,-0.1684
0.0666,0.18664,0.74671,-0.26873
0.035655,0.15953,0.80482,-0.30234
0.058182,0.25531,0.68665,-0.43892
0.0526,0.1646,0.7828,-0.15513
0.16685,0.042509,0.79064,0.084093
0.060309,0.17549,0.76393,-0.29774
0,0.13795,0.86205,-0.22022
0.10809,0.097255,0.79471,-0.055913
0.055436,0.1244,0.82025,-0.17605
0.070327,0.090582,0.83913,-0.048002
0.056618,0.16584,0.77745,-0.26703
0.059109,0.17555,0.76535,-0.21632
0.042855,0.25187,0.70536,-0.43125
0.066473,0.089836,0.84387,-0.044238
0.039727,0.21653,0.74393,-0.39737
0.044909,0.19011,0.7648,-0.33851
0.054545,0.17644,0.76902,-0.16416
0.14042,0.084364,0.77502,0.14087
0.016709,0.077909,0.90542,-0.20692
0.14391,0.11513,0.74096,0.23844
0.087273,0.14682,0.76567,-0.30801
0.10005,0.12462,0.77533,0.047709
0.087891,0.17836,0.73375,-0.10258
0.033509,0.12187,0.8446,-0.2518
0.018127,0.11333,0.8686,-0.21272
0.11462,0.068236,0.81709,0.020464
0.037436,0.19322,0.76947,-0.39644
0.040818,0.11865,0.84053,-0.28501
0.045818,0.11129,0.84289,-0.25876
0.052291,0.11698,0.83076,-0.063142
0.096018,0.1724,0.73158,-0.23512
0.040145,0.20345,0.7564,-0.44149
0.075564,0.15155,0.77289,-0.080025
0.063655,0.1218,0.81453,-0.20014
0.042873,0.17031,0.78691,-0.36842
0.015873,0.20824,0.77589,-0.55607
0.083273,0.21005,0.70658,-0.32963
0.083855,0.094182,0.82193,0.018707
0.079964,0.11227,0.80776,-0.061567
0.042727,0.13164,0.82569,-0.19784
0.0182,0.12969,0.85198,-0.31228
0.034655,0.20418,0.76116,-0.38174
0.019855,0.16136,0.81865,-0.28924
0.085691,0.18164,0.73267,-0.16047
0.051945,0.10464,0.84331,-0.15927
0.038709,0.25713,0.70433,-0.49061
0.088655,0.085782,0.82573,-0.032395
0.069127,0.19502,0.73616,-0.28695
0.022145,0.11805,0.85956,-0.26516
0.053255,0.16685,0.78004,-0.2713
0.010909,0.14509,0.844,-0.28197
0.055855,0.16087,0.78318,-0.4103
0.0542,0.21771,0.72809,-0.1722
0.085109,0.17369,0.74107,-0.29319
0.077727,0.18091,0.74136,-0.17922
0.0546,0.098418,0.84698,-0.15975
0.010109,0.11816,0.87173,-0.35178
0.076236,0.18975,0.73415,-0.37668
0.065782,0.12651,0.80771,-0.092684
0.049436,0.13307,0.81742,-0.21541
0.16411,0.19256,0.64345,-0.072069
0.013455,0.18142,0.80513,-0.29823
0.080218,0.27115,0.64878,-0.29228
0.12702,0.14338,0.7296,-0.02878
0.089491,0.21995,0.69055,-0.22488
0.081982,0.18249,0.73569,-0.31598
0.032964,0.16445,0.80258,-0.29086
0.079473,0.066818,0.85371,0.0056127
0.048218,0.24093,0.71069,-0.36441
0.060982,0.10131,0.83771,-0.14286
0.060982,0.13684,0.80218,-0.147
0.043273,0.13547,0.82125,-0.28375
0.057418,0.091564,0.85102,-0.08396
0.0053818,0.15833,0.83629,-0.3597
0.011636,0.11815,0.87022,-0.27916
0.1016,0.10289,0.79551,-0.11686
0.011145,0.18776,0.80109,-0.36907
0.066764,0.072873,0.86029,0.12734
0.096055,0.15878,0.74524,-0.10493
0.061164,0.12462,0.81429,-0.17233
0.027873,0.14098,0.83115,-0.2444
0.067127,0.14235,0.79056,-0.10272
0.070727,0.26655,0.66282,-0.405
0.064655,0.16693,0.76856,-0.46585
0.097164,0.16505,0.73778,-0.19582
0.11069,0.25642,0.63289,-0.21061
0.067545,0.074818,0.85764,0.011109
0.073364,0.078273,0.84836,-0.097935
0.11213,0.17555,0.71236,-0.15551
0.079273,0.20311,0.71762,-0.23462
0.12256,0.15695,0.72049,-0.061767
0.042327,0.22965,0.72784,-0.30587
0.038473,0.19149,0.77004,-0.29805
0.047436,0.13396,0.8186,-0.23649
0.042818,0.26905,0.68809,-0.54301
0.092509,0.17684,0.73049,-0.27285
0.096036,0.1314,0.77271,-0.15355
0.064582,0.11078,0.82462,-0.0038018
0.056455,0.12093,0.82262,-0.14996
0.10369,0.10465,0.79169,0.020815
0.080909,0.11333,0.80576,-0.079311
0.044509,0.12598,0.82956,-0.29087
0.082255,0.059236,0.85858,-0.0025018
0.14422,0.066691,0.78925,0.32214
0.044145,0.1804,0.77527,-0.4225
0.0638,0.14062,0.79558,-0.25555
0.10555,0.1878,0.70665,-0.31731
0.045982,0.27227,0.68189,-0.53515
0.026327,0.27053,0.70315,-0.42566
0.098927,0.19742,0.70371,-0.26494
0.052836,0.10447,0.84269,-0.089718
0.10633,0.14438,0.74929,-0.080898
0.032255,0.21658,0.75116,-0.29743
0.1102,0.10509,0.78471,-0.00788
0.090327,0.045873,0.86371,0.18582
0.010309,0.097836,0.89185,-0.2013
0.11458,0.12787,0.75767,0.00254
0.097782,0.2302,0.67193,-0.098262
0.023382,0.20165,0.77496,-0.29752
0.048291,0.19927,0.75244,-0.38781
0.060855,0.1468,0.79235,-0.25596
0.032618,0.16396,0.80342,-0.4299
0.046782,0.18653,0.76651,-0.47146
0.090018,0.11765,0.79233,-0.062776
0.0013091,0.10218,0.89651,-0.21545
0.043618,0.17693,0.77945,-0.13558
0.057,0.15935,0.78365,-0.15013
0.085073,0.12365,0.79109,-0.11487
0.042764,0.057455,0.89978,-0.072225
0.030309,0.17955,0.79015,-0.31342
0.14805,0.1832,0.66875,-0.097725
0.054164,0.20691,0.73909,-0.26225
0.0097091,0.22613,0.76416,-0.46718
0.059109,0.12638,0.81451,-0.2171
0.045564,0.16562,0.78891,-0.2483
0.084145,0.20776,0.70809,-0.23318
0.1122,0.13007,0.75782,-0.11329
0.027655,0.095055,0.87729,-0.032036
0.074345,0.31696,0.60873,-0.51185
0.037727,0.30809,0.65431,-0.4845
0.048418,0.20371,0.74784,-0.41709
0.030036,0.16584,0.80413,-0.28607
0.0406,0.038764,0.92064,-0.043867
0.073364,0.16115,0.76536,-0.22932
0.11524,0.070982,0.81393,0.1775
0.014636,0.17867,0.80669,-0.33751
0.015273,0.21969,0.76504,-0.39044
0.063255,0.28038,0.6564,-0.37343
0.097855,0.097055,0.80493,0.028153
0.089964,0.16371,0.74633,-0.019658
0.072345,0.24122,0.68636,-0.38725
0.042509,0.12527,0.8324,-0.22837
0.050473,0.24218,0.70727,-0.47666
0.036818,0.14202,0.82113,-0.2992
0.10811,0.14825,0.74347,-0.13653
0.098509,0.11915,0.78245,-0.057302
0.057655,0.086473,0.85607,0.019555
0.0098182,0.18887,0.80142,-0.30825
0.15102,0.1414,0.70769,-0.011267
0.052164,0.21027,0.73784,-0.3498
0.057273,0.13567,0.807,-0.11333
0.053782,0.19095,0.75545,-0.31387
0.038927,0.12305,0.83802,-0.20411
0.018727,0.30284,0.67844,-0.57693
0.033836,0.15962,0.80655,-0.23492
0.066218,0.12895,0.80469,-0.20382
0.049345,0.11805,0.83273,-0.14864
0.057364,0.17118,0.77145,-0.31924
0.027673,0.19129,0.78115,-0.37137
0.019473,0.16607,0.81445,-0.28344
0.029545,0.20207,0.76844,-0.37781
0.063509,0.064364,0.87213,-0.060993
0.060836,0.10518,0.83387,-0.043889
0.061836,0.16991,0.7684,-0.27607
0.020491,0.069509,0.91013,-0.15118
0.055727,0.13291,0.81136,-0.21728
0.054236,0.20871,0.73718,-0.40869
0.061091,0.074673,0.86438,-0.076107
0.049145,0.20187,0.74867,-0.44163
0.0188,0.096818,0.88427,-0.16628
0.041927,0.10295,0.85513,-0.064818
0.039545,0.18531,0.77515,-0.33481
0.046582,0.10958,0.84384,-0.17678
0.010145,0.23304,0.75707,-0.5493
0.062236,0.19955,0.73822,-0.27018
0.067091,0.14822,0.78469,-0.03118
0.085255,0.15278,0.76196,-0.15541
0.075855,0.054364,0.86978,-0.010382
0.016727,0.047073,0.93635,-0.072122
0.0021818,0.29362,0.7042,-0.54976
0,0.19349,0.80651,-0.40718
0.0044727,0.45005,0.54545,-0.68273
0.042473,0.20913,0.7484,-0.32467
0.070491,0.23127,0.6984,-0.26923
0.0892,0.11284,0.79796,0.064796
0.0093273,0.11125,0.87958,-0.10988
0.046164,0.21187,0.74189,-0.3856
0.091927,0.16493,0.74315,-0.20535
0.0644,0.12569,0.80998,-0.17326
0.082018,0.15367,0.76431,-0.19571
0.043527,0.13069,0.82578,-0.060207
0.014891,0.089873,0.89524,-0.087193
0.11965,0.0494,0.83095,0.12617
0.052691,0.054836,0.89251,0.035842
0.10791,0.18111,0.71098,-0.11592
0.060745,0.15155,0.7876,-0.13699
0.011836,0.14258,0.84564,-0.28878
0.038527,0.11696,0.8446,-0.15436
0.046909,0.15796,0.79513,-0.30022
0.052109,0.19669,0.7512,-0.25039
0.052291,0.16518,0.78236,-0.13475
0.093,0.14669,0.76018,-0.054198
0.084509,0.10611,0.80938,0.0082309
0.13993,0.15555,0.70453,0.036829
0.041727,0.19305,0.76525,-0.47341
0.073855,0.267,0.65915,-0.33335
0.048127,0.18169,0.77035,-0.26366
0.019927,0.21696,0.76311,-0.48699
0.0055273,0.10909,0.88538,-0.22788
0.030745,0.16618,0.80307,-0.21794
0.091764,0.15167,0.75642,-0.11582
0.029127,0.25735,0.71365,-0.40546
0.081345,0.15678,0.76193,-0.24086
0.062073,0.13695,0.80098,-0.13671
0.064782,0.073273,0.86204,-0.080505
0.054455,0.22353,0.72202,-0.39772
0.054073,0.068618,0.87731,0.0090655
0.074218,0.14849,0.77729,-0.24405
0.060873,0.0776,0.86149,0.022271
0.047273,0.095927,0.8568,-0.087518
0.082364,0.083345,0.83424,0.057165
0.0045818,0.22353,0.77189,-0.31266
0.025891,0.20247,0.77164,-0.42773
0.050236,0.0838,0.86596,-0.16206
0.066055,0.27531,0.65864,-0.47667
0.064673,0.1234,0.81193,-0.2566
0.026909,0.18533,0.78765,-0.37432
0.050182,0.15335,0.79647,-0.15663
0.070527,0.17515,0.75451,-0.23512
0.077527,0.14207,0.7804,-0.095945
0.039455,0.20153,0.75902,-0.53118
0.072745,0.15736,0.76982,-0.095887
0.066782,0.12327,0.80982,-0.25601
0.035418,0.21964,0.74489,-0.51021
0.0434,0.1704,0.78627,-0.36033
0.17142,0.16695,0.66202,-0.043127
0.043273,0.092145,0.86458,-0.13771
0.078091,0.18196,0.74002,-0.25069
0.072236,0.20024,0.72745,-0.33533
0.073945,0.1582,0.76785,-0.30982
0.031945,0.12029,0.84764,-0.164
0.044291,0.18065,0.77489,-0.37347
0.034636,0.29153,0.67391,-0.45712
0.053927,0.18185,0.76422,-0.26858
0.070655,0.16393,0.76525,-0.36117
0.051127,0.21133,0.73755,-0.4213
0.083036,0.1694,0.74756,-0.16985
0.034764,0.11087,0.85429,-0.024745
0.13255,0.22555,0.64191,-0.20368
0.19784,0.15165,0.65051,0.04366
0.12158,0.1444,0.73402,-0.14637
0.067145,0.20313,0.72956,-0.34873
0.068691,0.15727,0.77404,-0.23201
