0.021622,0.19547,0.78291,-0.38161
0.090222,0.16398,0.74587,-0.088983
0.05072,0.19552,0.75381,-0.31839
0.062292,0.16127,0.77649,-0.18463
0.10379,0.18445,0.71172,-0.18491
0.10464,0.17374,0.7218,-0.10031
0.046477,0.19123,0.76224,-0.26355
0.033391,0.22213,0.74445,-0.36049
0.02736,0.15653,0.81611,-0.24879
0.046698,0.24313,0.71024,-0.33261
0.092825,0.1336,0.77352,-0.091463
0.015228,0.25105,0.73365,-0.43587
0.062951,0.26354,0.67345,-0.28997
0.048012,0.18416,0.76783,-0.27921
0.1417,0.13632,0.72204,-0.044443
0.063668,0.1235,0.81282,-0.11847
0.048105,0.25586,0.69606,-0.29607
0.048938,0.16494,0.78612,-0.16724
0.074095,0.23028,0.69561,-0.24372
0.051474,0.17913,0.76945,-0.28082
0.04336,0.26338,0.69319,-0.40616
0.075172,0.20893,0.71592,-0.26647
0.023523,0.25426,0.72222,-0.39393
0.034982,0.18612,0.77882,-0.20969
0.040809,0.16919,0.79004,-0.1941
0.075148,0.19885,0.72599,-0.22977
0.053963,0.24119,0.70484,-0.38431
0.040372,0.18275,0.77684,-0.18691
0.025822,0.29018,0.68399,-0.36666
0.03728,0.22559,0.73704,-0.29859
0.043385,0.16078,0.79576,-0.24819
0.082191,0.15771,0.7601,-0.17507
0.020323,0.24078,0.73889,-0.35607
0.0060862,0.18674,0.80718,-0.26968
0.026554,0.1881,0.78534,-0.18482
0.071246,0.15817,0.77054,-0.22036
0.076898,0.2111,0.712,-0.18616
0.11654,0.22899,0.6544,-0.19401
0.088265,0.17641,0.73528,-0.20451
0.037034,0.1606,0.80237,-0.20278
0.10213,0.11773,0.78019,-0.014974
0.08236,0.19098,0.72654,-0.18407
0.079505,0.18646,0.7341,-0.19186
0.039434,0.21184,0.74873,-0.35306
0.076745,0.18087,0.74238,-0.21485
0.1231,0.1619,0.715,-0.057682
0.061009,0.17686,0.76205,-0.21253
0.065662,0.142,0.79248,-0.14964
0.079892,0.14379,0.77628,-0.097161
0.061877,0.16207,0.77607,-0.20341
0.14168,0.15668,0.70165,-0.031788
0.13114,0.20398,0.6648,-0.15994
0.072806,0.10521,0.82203,-0.12947
0.075151,0.21671,0.70814,-0.17618
0.063049,0.26048,0.67646,-0.33144
0.097102,0.18414,0.71869,-0.19096
0.05724,0.21602,0.7268,-0.33043
0.1014,0.2326,0.66592,-0.24574
0.068314,0.23273,0.69889,-0.31209
0.090772,0.24371,0.6656,-0.21016
0.055917,0.16753,0.77655,-0.23911
0.11021,0.15194,0.73782,-0.1161
0.10175,0.16051,0.73769,-0.10803
0.039526,0.22042,0.74005,-0.3233
0.053037,0.14793,0.79909,-0.1474
0.078631,0.24283,0.67866,-0.31086
0.08156,0.22162,0.69693,-0.30697
0.01576,0.24643,0.73781,-0.38379
0.08312,0.15441,0.76247,-0.10603
0.087132,0.10323,0.80966,-0.056361
0.031455,0.12263,0.84589,-0.1168
0.041748,0.21882,0.73941,-0.30078
0.10882,0.10549,0.7857,-0.0052394
0.076871,0.10956,0.81357,-0.063278
0.046354,0.18384,0.76981,-0.28944
0.055855,0.16265,0.78142,-0.171
0.072182,0.1455,0.78238,-0.16991
0.04612,0.17504,0.77884,-0.22665
0.096332,0.14656,0.75717,-0.13774
0.059929,0.16278,0.77729,-0.16551
0.085994,0.1957,0.71841,-0.28554
0.10324,0.17673,0.72,-0.22729
0.10593,0.19036,0.70378,-0.15308
0.056726,0.24349,0.69991,-0.40253
0.077775,0.13257,0.78971,-0.099301
0.093908,0.17597,0.73017,-0.16456
0.089037,0.25103,0.65994,-0.35676
0.067751,0.14282,0.78943,-0.13151
0.028117,0.31857,0.65335,-0.51358
0.065791,0.10963,0.82461,-0.13155
0.044194,0.15721,0.79861,-0.25054
0.098335,0.2387,0.66304,-0.24026
0.046406,0.19292,0.76072,-0.25602
0.032797,0.18531,0.7819,-0.31232
0.059935,0.2701,0.66998,-0.40429
0.072649,0.16686,0.76042,-0.17132
0.12448,0.14305,0.73246,-0.026142
0.061409,0.2047,0.73398,-0.29301
0.097914,0.21852,0.68356,-0.17178
0.089545,0.19544,0.71515,-0.2587
0.04264,0.1958,0.76158,-0.2952
0.077582,0.19325,0.72924,-0.1441
0.023468,0.23243,0.7441,-0.39379
0.068868,0.17775,0.75337,-0.17518
0.038215,0.17658,0.78519,-0.31705
0.026409,0.21735,0.75624,-0.34626
0.030926,0.16591,0.80331,-0.24454
0.080803,0.13403,0.78517,-0.21749
0.054662,0.17586,0.76951,-0.25876
0.034538,0.20946,0.7561,-0.33214
0.055218,0.15506,0.7897,-0.20013
0.048585,0.22498,0.72641,-0.35883
0.04164,0.3058,0.65269,-0.47843
0.081698,0.2025,0.7158,-0.28773
0.051911,0.1803,0.76768,-0.19766
0.084132,0.22179,0.6941,-0.26809
0.070178,0.22116,0.70859,-0.31337
0.078098,0.15404,0.76785,-0.22179
0.041465,0.19636,0.76217,-0.2685
0.062631,0.1326,0.80477,-0.10726
0.036837,0.17611,0.78705,-0.27321
0.08784,0.14287,0.76932,-0.057278
0.042572,0.18689,0.7705,-0.33818
0.065178,0.18995,0.74487,-0.27157
0.088898,0.18642,0.72471,-0.12675
0.059203,0.14443,0.7963,-0.19525
0.022071,0.20716,0.77069,-0.34939
0.090194,0.23527,0.67472,-0.31021
0.072068,0.16351,0.76438,-0.17697
0.033997,0.1707,0.79535,-0.30036
0.043043,0.18942,0.76754,-0.31304
0.023458,0.2045,0.77196,-0.31062
0.10322,0.18681,0.71004,-0.17832
0.086843,0.19334,0.71982,-0.15482
0.058717,0.25365,0.68758,-0.27522
0.072154,0.19819,0.72969,-0.1985
0.092942,0.16063,0.74643,-0.12519
0.066255,0.13911,0.79466,-0.21993
0.089769,0.14184,0.76833,-0.12425
0.053271,0.16137,0.78536,-0.24028
0.0584,0.20884,0.73281,-0.21232
0.073034,0.20299,0.72398,-0.2975
0.092926,0.26399,0.64306,-0.39783
0.07312,0.15329,0.77358,-0.21455
0.051,0.24764,0.70141,-0.43043
0.082858,0.15944,0.75776,-0.088078
0.044594,0.15198,0.80339,-0.23551
0.050215,0.30922,0.64048,-0.44143
0.047775,0.22241,0.72978,-0.37612
0.074329,0.17875,0.74687,-0.2633
0.073689,0.13849,0.78786,-0.20745
0.039532,0.26498,0.69552,-0.40247
0.039551,0.22339,0.73693,-0.34253
0.039782,0.26448,0.69581,-0.46704
0.03068,0.222,0.74727,-0.42605
0.080769,0.21286,0.70637,-0.21681
0.052317,0.18994,0.75774,-0.3623
0.052197,0.23228,0.71552,-0.30518
0.054012,0.26904,0.67682,-0.44231
0.078031,0.20456,0.71741,-0.29332
0.018643,0.12998,0.85137,-0.24363
0.038957,0.21004,0.75099,-0.30928
0.070788,0.10363,0.82558,-0.061615
0.076298,0.18126,0.74244,-0.20395
0.046037,0.13106,0.82296,-0.1493
0.10047,0.16804,0.73153,-0.19049
0.048729,0.19123,0.75997,-0.3265
0.07036,0.14306,0.78663,-0.12729
0.03888,0.20021,0.76089,-0.3227
0.051551,0.19606,0.75242,-0.29845
0.030745,0.13526,0.83399,-0.26539
0.052222,0.16655,0.78116,-0.28934
0.060172,0.22386,0.71603,-0.31089
0.092775,0.26879,0.63845,-0.32064
0.057975,0.18939,0.75268,-0.26325
0.1511,0.15036,0.69852,-0.078436
0.053335,0.14761,0.79905,-0.17238
0.073483,0.17631,0.75031,-0.19826
0.06264,0.16401,0.77335,-0.19425
0.058286,0.14,0.80172,-0.1609
0.050606,0.21323,0.7362,-0.26781
0.063766,0.11375,0.82248,-0.093271
0.046837,0.21319,0.73994,-0.34999
0.076785,0.16805,0.75517,-0.21478
0.065335,0.18188,0.75285,-0.27316
0.069511,0.21333,0.71716,-0.28708
0.093735,0.19932,0.70686,-0.23242
0.063877,0.13996,0.79616,-0.08223
0.077289,0.15616,0.7667,-0.1909
0.065815,0.20456,0.72963,-0.30618
0.060329,0.14547,0.79423,-0.21336
0.099372,0.1606,0.74008,-0.12919
0.046572,0.23639,0.71704,-0.37814
0.062268,0.12214,0.8156,-0.046969
0.049917,0.15747,0.79262,-0.12742
0.073945,0.15653,0.76961,-0.18195
0.023591,0.251,0.72549,-0.5158
0.037809,0.16383,0.79833,-0.25829
0.09492,0.2467,0.65836,-0.23716
0.060563,0.13381,0.80563,-0.15556
0.064622,0.18888,0.74644,-0.22924
0.07004,0.14165,0.78836,-0.12458
0.067929,0.15064,0.78144,-0.21869
0.045757,0.13338,0.82085,-0.19982
0.060169,0.088695,0.85107,-0.1013
0.02016,0.1391,0.84074,-0.22428
0.059348,0.12826,0.81242,-0.11
0.1123,0.090637,0.7971,0.03683
0.099526,0.175,0.72549,-0.1654
0.058422,0.232,0.70954,-0.33355
0.064329,0.16983,0.76584,-0.27441
0.1101,0.15722,0.73255,-0.16851
0.086538,0.1617,0.75176,-0.10065
0.021492,0.18507,0.79343,-0.27592
0.078157,0.18521,0.73663,-0.19045
0.058446,0.13696,0.8046,-0.25133
0.080945,0.15772,0.76141,-0.24299
0.061166,0.18266,0.7562,-0.28325
0.11883,0.10774,0.77336,-0.011274
0.067286,0.23748,0.69523,-0.40738
0.064,0.22193,0.71398,-0.37047
0.13842,0.13906,0.72247,-0.013177
0.036458,0.16841,0.79518,-0.2299
0.022929,0.14246,0.83462,-0.22286
0.133,0.18799,0.67905,-0.070212
0.12191,0.076735,0.80134,-0.021684
0.062218,0.211,0.72688,-0.21742
0.027169,0.29015,0.68268,-0.45079
0.043606,0.22276,0.73373,-0.34943
0.053148,0.22393,0.72282,-0.41205
0.039068,0.16962,0.79131,-0.33741
0.040468,0.2701,0.68955,-0.40987
0.071689,0.18208,0.7461,-0.28027
0.045591,0.30161,0.65278,-0.4614
0.062945,0.26452,0.67241,-0.42928
0.066185,0.15912,0.77474,-0.28594
0.077902,0.17978,0.74237,-0.25959
0.10591,0.1907,0.70331,-0.20239
0.033785,0.13984,0.82638,-0.25091
0.056695,0.17963,0.76367,-0.19457
0.059455,0.17875,0.76179,-0.23857
0.059769,0.145,0.79523,-0.17139
0.065166,0.21182,0.72297,-0.36417
0.081511,0.17868,0.73993,-0.28807
0.067689,0.17239,0.75998,-0.31337
0.059634,0.22799,0.71245,-0.37717
0.091348,0.13877,0.76987,-0.23631
0.06076,0.10388,0.83541,-0.15182
0.037391,0.14809,0.81452,-0.26024
0.034938,0.1667,0.79836,-0.31377
0.059203,0.12987,0.81094,-0.20332
0.05952,0.2113,0.72914,-0.33681
0.059458,0.19099,0.7495,-0.29176
0.055477,0.1991,0.74541,-0.31341
0.063111,0.1301,0.80678,-0.13257
0.059686,0.12464,0.81574,-0.22286
0.051668,0.14032,0.80801,-0.15668
0.046403,0.17738,0.77622,-0.30221
0.048154,0.1148,0.83713,-0.19666
0.067151,0.15078,0.78217,-0.22309
0.10719,0.092858,0.79989,-0.042437
0.071446,0.19235,0.73608,-0.37848
0.0486,0.1409,0.81055,-0.25348
0.065022,0.1958,0.73926,-0.27668
0.090449,0.14344,0.76608,-0.095211
0.059114,0.19135,0.74958,-0.3278
0.071932,0.15608,0.77184,-0.15041
0.067502,0.15034,0.78226,-0.25679
0.043366,0.10269,0.85392,-0.17487
0.12213,0.19496,0.68296,-0.18702
0.054037,0.16473,0.78123,-0.20578
0.047071,0.17148,0.78152,-0.27807
0.069591,0.19848,0.73184,-0.27096
0.059929,0.11034,0.82967,-0.096809
0.056532,0.1083,0.8352,-0.22477
0.083969,0.20046,0.71565,-0.28563
0.10254,0.096908,0.80049,-0.053986
0.1143,0.11416,0.77159,0.041742
0.052662,0.12878,0.81859,-0.11514
0.064988,0.20066,0.73435,-0.36249
0.072945,0.18628,0.7407,-0.25689
0.064289,0.12336,0.8123,-0.096762
0.081689,0.21977,0.69854,-0.29545
0.083003,0.13072,0.78635,-0.18479
0.074652,0.14108,0.78434,-0.22437
0.0908,0.14072,0.76846,-0.07569
0.12198,0.16158,0.71644,-0.038689
0.076778,0.22556,0.69759,-0.38335
0.04356,0.19039,0.76611,-0.27049
0.078028,0.1711,0.75094,-0.18123
0.080895,0.1689,0.75023,-0.1703
0.094465,0.15531,0.75023,-0.17691
0.060409,0.17227,0.76724,-0.25123
0.034163,0.29013,0.67569,-0.55328
0.075188,0.1361,0.78871,-0.097626
0.091923,0.13121,0.77699,-0.154
0.057228,0.13641,0.80624,-0.22201
0.091622,0.25227,0.65607,-0.1881
0.039871,0.16181,0.79832,-0.28775
0.1034,0.13923,0.75735,-0.10159
0.057951,0.13602,0.80598,-0.21149
0.073018,0.18953,0.73744,-0.26901
0.12537,0.10698,0.76754,0.079144
0.067938,0.15149,0.78048,-0.12194
0.099348,0.11781,0.7829,-0.055661
0.05848,0.11993,0.82156,-0.11092
0.076705,0.19485,0.72849,-0.3481
0.064212,0.20006,0.73578,-0.32626
0.092458,0.20193,0.70562,-0.22885
0.070615,0.15434,0.77515,-0.22662
0.081237,0.17555,0.74318,-0.14195
0.056618,0.11963,0.82373,-0.085584
0.079292,0.1081,0.81256,-0.083563
0.078446,0.1326,0.78898,-0.094207
0.054957,0.19336,0.75162,-0.29409
0.066532,0.16536,0.76824,-0.19885
0.076138,0.11862,0.80527,-0.061518
0.074332,0.15799,0.76768,-0.15658
0.092302,0.14119,0.7665,-0.12604
0.047335,0.18718,0.76548,-0.33337
0.076972,0.13355,0.78954,-0.17066
0.035695,0.21396,0.75042,-0.41033
0.11192,0.10478,0.78329,-0.11794
0.023071,0.16905,0.80785,-0.25831
0.069945,0.16115,0.76872,-0.239
0.068474,0.1657,0.76582,-0.26262
0.011538,0.20437,0.78405,-0.41536
0.057972,0.19336,0.74862,-0.29119
0.04104,0.15497,0.80398,-0.22503
0.092086,0.16581,0.74206,-0.22791
0.037868,0.20201,0.76013,-0.30674
0.073058,0.17691,0.75006,-0.1731
0.022375,0.25468,0.723,-0.5306
0.068203,0.20163,0.73013,-0.25744
0.018295,0.18118,0.80055,-0.31157
0.06888,0.18509,0.74607,-0.18204
0.085748,0.14491,0.76944,-0.15218
0.10176,0.14127,0.75698,-0.06708
0.059034,0.17049,0.77048,-0.28949
0.049852,0.19022,0.76001,-0.28558
0.060742,0.23278,0.70653,-0.3039
0.066634,0.21856,0.71479,-0.37373
0.049865,0.20378,0.74637,-0.4013
0.057437,0.17018,0.77247,-0.29214
0.084062,0.19926,0.71661,-0.28729
0.075637,0.15271,0.77165,-0.12687
0.087745,0.14973,0.76259,-0.26006
0.058797,0.16177,0.77951,-0.196
0.0422,0.14303,0.81477,-0.23692
0.15086,0.096566,0.7525,0.13454
0.063591,0.12531,0.81109,-0.090867
0.041532,0.20005,0.75842,-0.3523
0.037225,0.18133,0.78146,-0.4127
0.048052,0.1236,0.82824,-0.24572
0.032957,0.19624,0.77081,-0.30363
0.061643,0.18225,0.75613,-0.34241
0.1349,0.17731,0.68773,-0.13841
0.086572,0.2095,0.704,-0.31541
0.048855,0.1781,0.77307,-0.3149
0.059628,0.11668,0.82375,-0.20492
0.067342,0.25054,0.68204,-0.31863
0.073791,0.12681,0.79932,-0.20302
0.065498,0.21339,0.72106,-0.21551
0.046191,0.19008,0.76373,-0.32295
0.094025,0.10911,0.79702,-0.071158
0.053831,0.15851,0.78757,-0.29924
0.13174,0.15303,0.71522,-0.11745
0.058375,0.15946,0.78213,-0.31141
0.047391,0.21068,0.7419,-0.39866
0.059606,0.14858,0.79182,-0.27351
0.04928,0.17946,0.77131,-0.33972
0.066652,0.16984,0.76343,-0.32195
0.041089,0.15075,0.80811,-0.27469
0.11648,0.20593,0.67745,-0.14297
0.14338,0.12567,0.73094,-0.054841
0.093191,0.15875,0.74801,-0.20899
0.10782,0.14717,0.74496,-0.036804
0.07288,0.15882,0.76833,-0.20097
0.059892,0.13352,0.80661,-0.29202
0.088218,0.19583,0.71598,-0.29586
0.056843,0.12819,0.81501,-0.18748
0.072665,0.24175,0.68559,-0.27599
0.020532,0.222,0.75746,-0.41576
0.056194,0.17776,0.76615,-0.3348
0.043652,0.13943,0.81689,-0.25044
0.079886,0.23985,0.68027,-0.37128
0.050846,0.20378,0.74541,-0.31305
0.082123,0.20679,0.71102,-0.34311
0.075415,0.17278,0.75181,-0.26041
0.040028,0.13024,0.82972,-0.17037
0.051834,0.11744,0.83063,-0.10634
0.04176,0.21583,0.74249,-0.37107
0.054351,0.17195,0.77362,-0.25347
0.12013,0.21431,0.66559,-0.17985
0.095234,0.1756,0.72906,-0.12081
0.057702,0.22794,0.71434,-0.21971
0.061452,0.14058,0.798,-0.18218
0.10282,0.1337,0.76347,-0.054072
0.12059,0.14039,0.73904,-0.065468
0.068963,0.13509,0.79591,-0.10102
0.052523,0.14488,0.80267,-0.20829
0.063062,0.12212,0.8149,-0.12137
0.071098,0.17375,0.75516,-0.29218
0.065905,0.17178,0.76232,-0.15132
0.07312,0.14904,0.77779,-0.17209
0.060505,0.18089,0.75854,-0.29482
0.052563,0.1882,0.75916,-0.32328
0.065538,0.18406,0.75034,-0.23756
0.052975,0.18692,0.7602,-0.36205
0.064985,0.14253,0.79231,-0.18884
0.046542,0.26468,0.68878,-0.34479
0.04244,0.18926,0.76831,-0.36066
0.086812,0.15705,0.75623,-0.20906
0.035612,0.21584,0.74862,-0.38949
0.1022,0.18294,0.71487,-0.15762
0.06056,0.16732,0.77211,-0.28345
0.023098,0.18877,0.78813,-0.32816
0.089606,0.24494,0.66551,-0.35074
0.065178,0.2311,0.70361,-0.34217
0.085203,0.16604,0.74867,-0.16127
0.10791,0.17691,0.71522,-0.14943
0.078354,0.17609,0.74561,-0.16184
0.061252,0.14203,0.79679,-0.10546
0.11681,0.1475,0.73578,-0.14769
0.051495,0.23322,0.71528,-0.40424
0.06392,0.11117,0.82492,-0.12016
0.060265,0.17883,0.7609,-0.25555
0.057818,0.20464,0.73757,-0.27337
0.1071,0.108,0.78498,-0.026473
0.048034,0.14069,0.81127,-0.26037
0.031582,0.14404,0.82438,-0.15145
0.11161,0.086865,0.80158,-0.0025951
0.055514,0.13759,0.80683,-0.19495
0.041948,0.2169,0.74104,-0.33619
0.072163,0.19625,0.73147,-0.32662
0.075902,0.22292,0.70119,-0.31285
0.078831,0.17913,0.74209,-0.20863
0.046569,0.22015,0.73328,-0.28637
0.089865,0.15507,0.75509,-0.17991
0.061498,0.16457,0.77393,-0.29094
0.084892,0.20218,0.71283,-0.28437
0.062637,0.18049,0.75689,-0.33286
0.083326,0.15124,0.76543,-0.25197
0.050689,0.15927,0.79002,-0.17467
0.057825,0.23994,0.70233,-0.38964
0.068797,0.15331,0.77779,-0.0795
0.048342,0.12374,0.82792,-0.17157
0.07372,0.20155,0.72474,-0.37872
0.074089,0.15126,0.77455,-0.1846
0.030305,0.15299,0.8167,-0.22681
0.054283,0.11385,0.83186,-0.20862
0.040089,0.19835,0.7616,-0.3678
0.054252,0.12839,0.81735,-0.1612
0.10121,0.18441,0.71435,-0.12311
0.042369,0.17168,0.78588,-0.32903
0.063178,0.10734,0.82962,-0.11562
0.051169,0.21071,0.73811,-0.49487
0.053689,0.13551,0.81083,-0.17184
0.067985,0.18801,0.744,-0.33219
0.015843,0.15185,0.8323,-0.38954
0.049206,0.2091,0.74169,-0.44891
0.061246,0.11226,0.82632,-0.18218
0.099569,0.1775,0.72275,-0.21022
0.073203,0.12455,0.80217,-0.096748
0.045108,0.1385,0.81642,-0.12791
0.088415,0.22578,0.68572,-0.29212
0.055449,0.15556,0.78892,-0.23012
0.063591,0.13378,0.80261,-0.12154
0.057271,0.16102,0.78166,-0.25623
0.046228,0.10946,0.84431,-0.16662
0.055129,0.17124,0.77363,-0.29849
0.10897,0.13469,0.75639,-0.11833
0.073858,0.14504,0.78116,-0.084058
0.068871,0.18238,0.74869,-0.19756
0.048148,0.17002,0.78185,-0.18221
0.022298,0.14327,0.83443,-0.24882
0.044615,0.23252,0.72275,-0.42209
0.12093,0.13626,0.74282,0.025308
0.050388,0.19076,0.75894,-0.31117
0.065209,0.20295,0.73178,-0.23763
0.066646,0.15762,0.77574,-0.16192
0.071323,0.17537,0.75331,-0.25079
0.043274,0.11046,0.84628,-0.10874
0.050582,0.28278,0.6667,-0.54079
0.083794,0.17771,0.73857,-0.25169
0.07056,0.1286,0.80094,-0.22876
0.081142,0.13818,0.78069,-0.22183
0.066674,0.19526,0.73805,-0.26736
0.075526,0.076329,0.84825,0.0085517
0.086585,0.066748,0.84668,0.088304
0.061388,0.21275,0.72586,-0.4439
0.08096,0.1761,0.74292,-0.19059
0.074754,0.15092,0.77433,-0.17457
0.081037,0.19434,0.7245,-0.32767
0.078871,0.15922,0.76198,-0.23852
0.051265,0.14928,0.79953,-0.29596
0.073354,0.16545,0.76128,-0.29918
0.017255,0.16418,0.81857,-0.34368
0.079345,0.13332,0.78742,-0.15865
0.071409,0.14288,0.78572,-0.11423
0.033206,0.20095,0.76578,-0.34842
0.058489,0.13351,0.808,-0.12521
0.088102,0.19247,0.71939,-0.19004
0.083858,0.13601,0.78007,-0.15882
0.063978,0.15618,0.77983,-0.26252
0.075508,0.095637,0.82894,0.010059
0.070554,0.13234,0.79719,-0.16888
0.061212,0.16172,0.77699,-0.23047
0.058474,0.19891,0.74254,-0.34646
0.098612,0.11241,0.78897,-0.043678
0.10104,0.16371,0.73529,-0.11784
0.047708,0.16812,0.78414,-0.18268
0.039692,0.143,0.81737,-0.23541
0.093782,0.1495,0.75671,-0.14701
0.023757,0.15403,0.82223,-0.29937
0.052526,0.20106,0.7465,-0.33584
0.097582,0.1756,0.72685,-0.05413
0.072855,0.15014,0.77701,-0.083978
0.028942,0.17078,0.80027,-0.27404
0.052058,0.12227,0.82564,-0.23668
0.076135,0.16554,0.75832,-0.2206
0.065295,0.17982,0.75479,-0.24737
0.069729,0.18135,0.74897,-0.30072
0.10285,0.17953,0.71765,-0.083262
0.048486,0.16545,0.78602,-0.14698
0.064074,0.22166,0.71434,-0.2586
0.054215,0.22662,0.7191,-0.33523
0.023862,0.15133,0.82485,-0.273
0.080668,0.22512,0.69417,-0.23537
0.039917,0.1027,0.85738,-0.14242
0.096243,0.12615,0.7777,-0.08316
0.091622,0.17017,0.73821,-0.27522
0.092806,0.18571,0.72128,-0.27692
0.071412,0.10756,0.82102,-0.0084714
0.063437,0.18366,0.75291,-0.24785
0.044498,0.16926,0.78625,-0.2565
0.025886,0.18402,0.79009,-0.41873
0.045748,0.17102,0.78308,-0.27589
0.036323,0.23945,0.72427,-0.43976
0.085963,0.24794,0.66615,-0.26536
0.043326,0.17597,0.7807,-0.25121
0.053314,0.20176,0.7449,-0.38474
0.077625,0.20793,0.71453,-0.4302
0.12695,0.13467,0.73834,-0.11303
0.080095,0.069529,0.85035,0.057272
0.10809,0.12151,0.77037,-0.071198
0.11008,0.21378,0.6762,-0.21095
0.1338,0.16875,0.6976,-0.068753
0.071834,0.15485,0.77342,-0.22351
0.11576,0.19752,0.6867,-0.18169
0.12381,0.11777,0.7583,0.05436
0.11867,0.11335,0.76803,0.0028366
0.055957,0.20151,0.74246,-0.22329
0.093418,0.20903,0.69748,-0.21661
0.023526,0.12385,0.85262,-0.20708
0.060557,0.19067,0.7488,-0.2819
0.04888,0.2513,0.69971,-0.42671
0.043003,0.14926,0.80777,-0.21003
0.067452,0.2312,0.70124,-0.31093
0.051954,0.15226,0.79576,-0.17371
0.054625,0.23863,0.70678,-0.33386
0.048012,0.17507,0.77691,-0.2079
0.079618,0.22516,0.69521,-0.18004
0.097874,0.1647,0.73744,-0.18313
0.045997,0.071831,0.88211,-0.1094
0.036646,0.17452,0.7889,-0.35239
0.047265,0.1385,0.81423,-0.18131
0.053228,0.17138,0.77536,-0.22875
0.055003,0.17365,0.7714,-0.25713
0.072655,0.18699,0.74039,-0.33642
0.076037,0.15547,0.76865,-0.11509
0.083388,0.14365,0.77304,-0.17301
0.063572,0.21039,0.72603,-0.3056
0.084631,0.18542,0.73003,-0.21901
0.052265,0.10776,0.83995,-0.12101
0.046086,0.18288,0.77097,-0.35322
0.062015,0.14155,0.7964,-0.069054
0.075954,0.21238,0.7117,-0.27737
0.043511,0.13822,0.81825,-0.14171
0.055742,0.16615,0.77821,-0.14758
0.095452,0.13312,0.77148,-0.16863
0.042135,0.2629,0.69499,-0.47455
0.050138,0.16161,0.78837,-0.27976
0.053145,0.185,0.76175,-0.2378
0.10906,0.16517,0.72579,-0.1024
0.087298,0.11825,0.79451,-0.17569
0.065363,0.11887,0.81581,-0.083767
0.058985,0.17604,0.76498,-0.34105
0.09596,0.092917,0.81121,-0.057473
0.054197,0.11423,0.83166,-0.10571
0.053471,0.15703,0.78949,-0.16846
0.053843,0.17194,0.77432,-0.13253
0.096157,0.13454,0.76933,-0.10422
0.053963,0.20676,0.73934,-0.30552
0.063951,0.19367,0.74239,-0.28252
0.045443,0.19496,0.7596,-0.33697
0.052778,0.15573,0.79144,-0.20172
0.044889,0.18629,0.76876,-0.34814
0.03612,0.09636,0.86753,-0.19385
0.064166,0.19378,0.74187,-0.30186
0.092514,0.12124,0.78625,-0.03846
0.060468,0.21484,0.72478,-0.30902
0.064702,0.19161,0.74368,-0.22264
0.042708,0.13558,0.82175,-0.19616
0.091212,0.15092,0.75778,-0.091389
0.049034,0.09284,0.85818,-0.1001
0.036643,0.082129,0.88123,-0.21118
0.056,0.15127,0.79276,-0.281
0.069618,0.214,0.71638,-0.33918
0.049637,0.13536,0.81491,-0.24734
0.069249,0.13595,0.7949,-0.15555
0.081572,0.18139,0.73705,-0.1802
0.040926,0.20085,0.75821,-0.38529
0.12023,0.20017,0.67952,-0.13953
0.045486,0.08528,0.86923,-0.032775
0.053705,0.11528,0.83099,-0.15557
0.058877,0.15627,0.78484,-0.22278
0.11078,0.17878,0.71059,-0.2244
0.075154,0.17475,0.75,-0.31826
0.052449,0.12247,0.82513,-0.12318
0.075609,0.21614,0.70827,-0.29513
0.049086,0.18944,0.76142,-0.32227
0.036738,0.13574,0.82753,-0.22788
0.036142,0.099031,0.8649,-0.15327
0.078618,0.14966,0.77161,-0.10143
0.10187,0.065535,0.8326,0.035058
0.13222,0.11115,0.75667,0.036961
0.065197,0.27118,0.66362,-0.37526
0.0896,0.14915,0.76125,-0.1058
0.059775,0.15745,0.78277,-0.20559
0.012529,0.081809,0.90562,-0.13682
0.0362,0.16776,0.79601,-0.27362
0.067948,0.1449,0.7871,-0.096418
0.079169,0.14306,0.77789,-0.18946
0.064489,0.17791,0.7576,-0.19239
0.037443,0.2367,0.72585,-0.41367
0.050169,0.2362,0.71362,-0.27639
0.070135,0.25195,0.67798,-0.31275
0.079815,0.21555,0.70464,-0.29591
0.06436,0.15869,0.77695,-0.10815
0.056428,0.17273,0.77081,-0.23536
0.059945,0.1892,0.75091,-0.19793
0.038434,0.18632,0.77535,-0.25277
0.088892,0.15698,0.75419,-0.14322
0.075151,0.084265,0.84064,-0.037054
0.076772,0.1778,0.74543,-0.32608
0.053255,0.18759,0.75902,-0.2358
0.07292,0.20062,0.72646,-0.26796
0.077132,0.11846,0.8044,-0.07522
0.060649,0.18423,0.75514,-0.21628
0.055194,0.17486,0.76993,-0.31599
0.06044,0.2234,0.71618,-0.22476
0.090865,0.079074,0.83006,0.058036
0.060169,0.14362,0.7963,-0.10835
0.085338,0.14748,0.76723,-0.10203
0.087689,0.13826,0.77411,-0.20516
0.10004,0.15466,0.7453,-0.10571
0.096538,0.097449,0.80593,-0.036062
0.058015,0.19522,0.7467,-0.26655
0.1222,0.14627,0.73156,-0.077656
0.039988,0.21382,0.74626,-0.29349
0.018172,0.20783,0.77399,-0.38333
0.066206,0.10136,0.83242,-0.070044
0.049003,0.24684,0.70416,-0.51504
0.092071,0.17434,0.73362,-0.12941
0.016566,0.096372,0.88711,-0.1307
0.056972,0.18395,0.75897,-0.23577
0.055006,0.16533,0.77966,-0.29344
0.048788,0.17874,0.77243,-0.31729
0.035975,0.20706,0.75702,-0.30907
0.092123,0.1309,0.77698,-0.10692
0.063283,0.22082,0.71588,-0.27435
0.081594,0.1435,0.77496,-0.11295
0.070708,0.1627,0.76659,-0.14889
0.071255,0.26034,0.66841,-0.39183
0.034665,0.16196,0.80338,-0.218
0.070046,0.21651,0.71345,-0.294
0.041271,0.24391,0.71486,-0.40057
0.065249,0.19804,0.73672,-0.20342
0.080382,0.17844,0.74119,-0.16275
0.11199,0.17488,0.71303,-0.14076
0.038166,0.15842,0.80341,-0.23186
0.079425,0.17544,0.74514,-0.21166
0.055615,0.17528,0.76917,-0.27455
0.048825,0.12611,0.82502,-0.11861
0.078754,0.15715,0.7641,-0.026522
0.049908,0.13905,0.81104,-0.28029
0.057735,0.23269,0.70957,-0.35228
0.078302,0.18555,0.73616,-0.1944
0.042194,0.21154,0.74613,-0.34476
0.025486,0.20625,0.7683,-0.32123
0.09488,0.13898,0.76621,-0.10504
0.061982,0.16772,0.77018,-0.2377
0.052388,0.25316,0.69445,-0.45214
0.061286,0.14928,0.78943,-0.12833
0.028985,0.24342,0.72766,-0.44427
0.057529,0.13257,0.80984,-0.22646
0.033182,0.14626,0.82066,-0.27002
0.048055,0.11933,0.83268,-0.20536
0.099982,0.15131,0.74864,-0.09881
0.045397,0.10755,0.84714,-0.076513
0.072671,0.16365,0.76368,-0.11334
0.10422,0.26355,0.63216,-0.31943
0.06656,0.23917,0.69419,-0.38271
0.058825,0.16124,0.77993,-0.3128
0.054895,0.16238,0.7826,-0.19527
0.064215,0.16533,0.77046,-0.19154
0.021197,0.22642,0.75238,-0.34746
0.053074,0.20352,0.74334,-0.44609
0.090338,0.23983,0.66989,-0.34161
0.050806,0.19184,0.75722,-0.30486
0.055089,0.19514,0.74973,-0.31426
0.05808,0.15808,0.78388,-0.26967
0.073111,0.13275,0.79422,-0.12163
0.075618,0.16115,0.76322,-0.12055
0.096015,0.13403,0.76994,-0.062196
0.056178,0.14518,0.79868,-0.13788
0.073517,0.24138,0.68506,-0.26682
0.073034,0.16977,0.75718,-0.23583
0.067686,0.12228,0.81009,-0.081597
0.016172,0.24723,0.73655,-0.42619
0.044308,0.24328,0.71248,-0.41184
0.069723,0.16643,0.76379,-0.21646
0.081809,0.19353,0.72466,-0.24436
0.10424,0.17013,0.72566,-0.22458
0.088068,0.1539,0.75816,-0.15016
0.056874,0.11758,0.82554,-0.11518
0.077012,0.15096,0.77202,-0.12192
0.05728,0.15219,0.79062,-0.27687
0.024582,0.14443,0.83101,-0.28916
0.090483,0.20758,0.70189,-0.16727
0.043775,0.20653,0.7497,-0.40578
0.064695,0.13243,0.80293,-0.16645
0.06604,0.11429,0.81967,-0.27365
0.075009,0.21336,0.71165,-0.23342
0.057372,0.14256,0.79996,-0.23057
0.066182,0.17971,0.75411,-0.31338
0.067178,0.16698,0.76585,-0.13243
0.058154,0.13623,0.80554,-0.16261
0.012243,0.15413,0.83362,-0.28914
0.049612,0.11689,0.8335,-0.17129
0.024286,0.14104,0.83471,-0.26653
0.05112,0.11704,0.83189,-0.15387
0.034782,0.18838,0.77681,-0.32576
0.055,0.15464,0.79035,-0.21731
0.035391,0.1898,0.77491,-0.34668
0.11989,0.1642,0.71584,-0.20061
0.073422,0.20955,0.71702,-0.34577
0.027754,0.2367,0.73554,-0.43566
0.098375,0.16425,0.73746,-0.13435
0.051268,0.23095,0.71781,-0.36558
0.037,0.15511,0.80787,-0.24431
0.091132,0.16214,0.74669,-0.20532
0.050415,0.18715,0.76238,-0.31495
0.055794,0.18551,0.7587,-0.28467
0.092105,0.20298,0.70488,-0.26054
0.029338,0.24106,0.72958,-0.493
0.041086,0.18287,0.77608,-0.35809
0.059698,0.19819,0.74211,-0.34848
0.064338,0.21271,0.72295,-0.24729
0.079674,0.13705,0.78327,-0.10683
0.028332,0.21752,0.75418,-0.39073
0.079622,0.18496,0.73549,-0.33376
0.061914,0.13042,0.80765,-0.048611
0.062486,0.18508,0.75236,-0.24724
0.047677,0.13324,0.81908,-0.15896
0.086034,0.10658,0.80727,-0.05547
0.081772,0.12417,0.79397,-0.11866
0.087025,0.17063,0.74231,-0.18351
0.042815,0.20619,0.75104,-0.35005
0.046397,0.17476,0.77883,-0.20517
0.059877,0.16649,0.7736,-0.24248
0.055231,0.19207,0.75275,-0.34865
0.066652,0.11135,0.82193,-0.031031
0.10017,0.15401,0.74584,-0.070893
0.046449,0.097908,0.85558,-0.13915
0.054105,0.14337,0.80262,-0.15024
0.086265,0.19366,0.72013,-0.30121
0.027129,0.17584,0.79703,-0.39121
0.071578,0.18448,0.74384,-0.21671
0.075526,0.11893,0.8055,-0.18656
0.044615,0.21469,0.74079,-0.40404
0.059742,0.13076,0.80948,-0.18452
0.089625,0.12922,0.78111,-0.075598
0.0884,0.14156,0.77004,-0.049191
0.069923,0.11874,0.81146,-0.082432
0.040382,0.17757,0.78194,-0.34203
0.076652,0.1617,0.76161,-0.26629
0.049637,0.18696,0.7634,-0.31652
0.06764,0.10018,0.83225,-0.11192
0.074382,0.17767,0.74795,-0.32458
0.053166,0.21774,0.72919,-0.33301
0.070665,0.13975,0.78948,-0.096709
0.084877,0.15727,0.7577,-0.1821
0.063246,0.17046,0.76629,-0.17247
0.083902,0.2329,0.68325,-0.24974
0.057409,0.10709,0.83551,-0.14478
0.077086,0.16879,0.75415,-0.26548
0.06816,0.17017,0.76154,-0.27235
0.037982,0.24106,0.72099,-0.45306
0.041071,0.12164,0.83729,-0.093832
0.077508,0.20172,0.7207,-0.26957
0.028182,0.20478,0.767,-0.43195
0.041563,0.20329,0.75508,-0.39687
0.0422,0.18124,0.77656,-0.33295
0.067403,0.14065,0.79199,-0.22845
0.088412,0.12111,0.79048,-0.069384
0.069203,0.15948,0.77137,-0.07687
0.079203,0.20019,0.72048,-0.23788
0.05268,0.147,0.80039,-0.16662
0.065009,0.16184,0.77315,-0.14874
0.057772,0.105,0.83731,-0.19326
0.078846,0.1959,0.72529,-0.19464
0.053317,0.19938,0.7473,-0.28366
0.09492,0.11796,0.7871,-0.019694
0.086978,0.16508,0.748,-0.16239
0.086588,0.19319,0.72023,-0.18
0.059006,0.17146,0.7695,-0.26853
0.078388,0.14769,0.77391,-0.11769
0.051951,0.23961,0.7084,-0.43796
0.055052,0.24403,0.70098,-0.38931
0.10862,0.17886,0.71239,-0.2663
0.056717,0.12931,0.814,-0.2025
0.053108,0.19732,0.74953,-0.29431
0.040532,0.17264,0.78683,-0.33776
0.077274,0.090646,0.832,-0.13007
0.071449,0.12352,0.80502,-0.095554
0.0456,0.16613,0.78826,-0.36987
0.065378,0.1347,0.79987,-0.076462
0.032735,0.17426,0.79294,-0.35434
0.07692,0.18431,0.73866,-0.19382
0.023465,0.21355,0.76305,-0.47168
0.055828,0.21699,0.72715,-0.24388
0.096895,0.15791,0.74513,-0.10044
0.052508,0.16039,0.78709,-0.19826
0.039095,0.13553,0.82541,-0.25733
0.067222,0.17527,0.75749,-0.29879
0.11321,0.18534,0.70146,-0.14013
0.098978,0.21186,0.68922,-0.29531
0.094575,0.17586,0.72963,-0.1171
0.084348,0.17873,0.73678,-0.20376
0.057018,0.21606,0.72692,-0.32672
0.049286,0.15863,0.79208,-0.22499
0.079375,0.11871,0.8019,-0.14389
0.03844,0.10083,0.86069,-0.15176
0.029474,0.23621,0.73432,-0.42423
0.036462,0.14432,0.81914,-0.27087
0.053483,0.17087,0.77561,-0.23241
0.040782,0.16708,0.79224,-0.23252
0.041215,0.10235,0.85643,-0.07561
0.042585,0.17638,0.78111,-0.27677
0.055326,0.24155,0.70316,-0.45444
0.039957,0.17039,0.78967,-0.2671
0.04716,0.14989,0.80295,-0.25836
0.10263,0.19751,0.69986,-0.22029
0.095742,0.14329,0.76094,-0.085534
0.077594,0.1681,0.75428,-0.21735
0.065028,0.12204,0.81294,-0.16216
0.056298,0.1635,0.78014,-0.18056
0.062812,0.17991,0.75722,-0.29926
0.054225,0.22489,0.7209,-0.32234
0.071972,0.091351,0.83679,-0.097865
0.055203,0.14651,0.79825,-0.19384
0.026446,0.25721,0.7164,-0.51379
0.029978,0.17674,0.79328,-0.25948
0.046634,0.25302,0.70032,-0.4485
0.066237,0.13974,0.79396,-0.22133
0.042643,0.19837,0.75894,-0.31227
0.039354,0.17988,0.78073,-0.32281
0.058754,0.17806,0.76319,-0.25773
0.080702,0.18281,0.73654,-0.22623
0.024825,0.15655,0.81855,-0.29822
0.061708,0.1651,0.77316,-0.21327
0.072982,0.16919,0.75788,-0.18438
0.020348,0.21713,0.76256,-0.31775
0.086588,0.15026,0.76327,-0.15781
0.066111,0.15427,0.77961,-0.26546
0.082822,0.21125,0.70586,-0.23558
0.041732,0.14379,0.81448,-0.15852
0.056975,0.23554,0.7075,-0.35873
0.019683,0.18621,0.79414,-0.4295
0.068929,0.17492,0.75615,-0.26482
0.079603,0.12388,0.79651,-0.049151
0.027643,0.18852,0.78384,-0.37657
0.052412,0.19132,0.75625,-0.27849
0.059889,0.16684,0.77332,-0.23798
0.076677,0.10452,0.81879,-0.11582
0.054794,0.24053,0.70468,-0.34526
0.084231,0.1967,0.71923,-0.32981
0.014271,0.1859,0.79984,-0.37893
0.036234,0.20236,0.76139,-0.37461
0.045342,0.25531,0.69934,-0.35355
0.046794,0.13668,0.81646,-0.18526
0.050963,0.25297,0.69593,-0.38114
0.13589,0.13328,0.73083,-0.13379
0.065788,0.15329,0.78092,-0.15361
0.070243,0.1851,0.74466,-0.16365
0.035046,0.19359,0.77136,-0.37267
0.094108,0.18167,0.7243,-0.27227
0.10932,0.13894,0.75176,0.023387
0.080966,0.11551,0.80351,-0.10181
0.084735,0.17528,0.73995,-0.18169
0.041754,0.21613,0.74211,-0.39302
0.067705,0.15607,0.77624,-0.078072
0.078271,0.18233,0.73946,-0.16198
0.065123,0.26852,0.66639,-0.37252
0.059234,0.18813,0.7527,-0.33318
0.060375,0.16345,0.77618,-0.24612
0.082711,0.16646,0.75086,-0.28483
0.067966,0.20706,0.72506,-0.26488
0.09248,0.15135,0.7561,-0.10482
0.043302,0.16533,0.79138,-0.20961
0.020634,0.22034,0.75903,-0.42819
0.088132,0.22007,0.69177,-0.14208
0.12279,0.064569,0.81264,0.096515
0.048468,0.16888,0.78263,-0.28598
0.11228,0.11372,0.77402,-0.1142
0.045535,0.17445,0.78006,-0.2909
0.035495,0.16207,0.80229,-0.36124
0.080591,0.1441,0.7753,-0.084286
0.06316,0.20079,0.73605,-0.21705
0.043415,0.14388,0.81269,-0.22864
0.055828,0.17835,0.7658,-0.26722
0.054295,0.1552,0.79051,-0.21456
0.057108,0.19535,0.74741,-0.27424
0.095988,0.14162,0.7624,-0.091372
0.054028,0.14178,0.80415,-0.20557
0.034012,0.20246,0.76352,-0.35079
0.093535,0.20851,0.69795,-0.32704
0.033289,0.15241,0.81424,-0.24914
0.069658,0.20024,0.73009,-0.19583
0.086117,0.16345,0.75046,-0.15284
0.069822,0.14121,0.78891,-0.1673
0.032031,0.17166,0.79631,-0.23161
0.12874,0.13311,0.73816,-0.057645
0.082132,0.15046,0.76741,-0.12938
0.080732,0.14796,0.77126,-0.11293
0.050486,0.22141,0.72807,-0.34399
0.049735,0.11445,0.83582,-0.19662
0.035345,0.11219,0.85252,-0.1652
0.098138,0.15239,0.74945,-0.10548
0.039834,0.15243,0.80769,-0.22504
0.065557,0.16066,0.77375,-0.21521
0.071649,0.17185,0.75648,-0.096543
0.080535,0.15595,0.76349,-0.15131
0.089028,0.11379,0.79725,0.061294
0.061929,0.18655,0.75156,-0.31237
0.06456,0.16363,0.77166,-0.21926
0.070609,0.17165,0.75768,-0.2138
0.049689,0.12163,0.82868,-0.17372
0.042351,0.17691,0.78075,-0.3218
0.04836,0.20187,0.74982,-0.33068
0.064243,0.18266,0.75308,-0.19497
0.049597,0.19502,0.75545,-0.34101
0.032031,0.18628,0.78169,-0.32697
0.037434,0.18467,0.77791,-0.33497
0.081625,0.1801,0.73819,-0.25634
0.053222,0.16186,0.78494,-0.18067
0.034086,0.16393,0.80202,-0.26403
0.073382,0.20923,0.71746,-0.25523
0.057154,0.24056,0.70228,-0.32177
0.042262,0.25858,0.69923,-0.4703
0.048738,0.20119,0.75006,-0.245
0.078809,0.14581,0.77538,-0.098086
0.034908,0.18884,0.77621,-0.39278
0.057194,0.18036,0.76243,-0.28611
0.027295,0.12145,0.85126,-0.2082
0.065471,0.12695,0.8076,-0.16661
0.049431,0.088905,0.86166,-0.10383
0.087948,0.11483,0.79728,-0.098007
0.058138,0.081542,0.86035,-0.058526
0.041188,0.092902,0.86591,-0.14718
0.0468,0.14149,0.81176,-0.22627
0.079545,0.14495,0.7756,-0.19533
0.05912,0.11598,0.82493,-0.2342
0.07592,0.1703,0.75378,-0.25956
0.066926,0.16293,0.77021,-0.18645
0.088,0.12558,0.78649,-0.11621
0.055108,0.22111,0.7237,-0.43296
0.072428,0.18181,0.74588,-0.2595
0.048594,0.14427,0.80712,-0.23817
0.035557,0.11597,0.84845,-0.258
0.086437,0.16255,0.75101,-0.12988
0.03388,0.1806,0.78545,-0.32276
0.09616,0.16386,0.73997,-0.16134
0.058588,0.18515,0.75628,-0.24504
0.089997,0.13366,0.77636,-0.17701
0.079052,0.12307,0.79791,-0.078009
0.075612,0.1999,0.72446,-0.30343
0.072991,0.12584,0.80118,-0.14428
0.071258,0.18956,0.73919,-0.25737
0.057674,0.19715,0.74525,-0.30612
0.070311,0.15459,0.77517,-0.31842
0.055615,0.22491,0.71943,-0.28017
0.082545,0.12246,0.79505,-0.13732
0.051308,0.16866,0.78003,-0.24723
0.072265,0.18659,0.7412,-0.22673
0.064698,0.14626,0.78912,-0.28533
0.034785,0.17676,0.78853,-0.23137
0.034126,0.19198,0.77389,-0.36378
0.055662,0.15556,0.78878,-0.1377
0.071302,0.183,0.74562,-0.24559
0.051089,0.17674,0.77227,-0.31249
0.039883,0.12642,0.83369,-0.24596
0.10234,0.18992,0.70783,-0.18402
0.11683,0.16799,0.71518,-0.11238
0.070111,0.1891,0.74085,-0.21537
0.057425,0.22701,0.71564,-0.3921
0.042649,0.15507,0.80233,-0.27522
0.058071,0.15043,0.79159,-0.1518
0.026717,0.14028,0.833,-0.32224
0.058369,0.14723,0.7944,-0.18735
0.043668,0.23648,0.71985,-0.35635
0.062188,0.12865,0.80916,-0.12952
0.04984,0.20846,0.7417,-0.3408
0.042246,0.26995,0.6878,-0.43232
0.077025,0.1611,0.76174,-0.22807
0.062908,0.14622,0.79089,-0.26636
0.015163,0.17836,0.80649,-0.39809
0.065274,0.14277,0.79196,-0.12075
0.068415,0.21793,0.71365,-0.30853
0.027945,0.19287,0.77916,-0.38653
0.063262,0.15478,0.78196,-0.24627
0.075702,0.1347,0.78961,-0.080137
0.063615,0.23318,0.70315,-0.37954
0.10035,0.14371,0.75597,-0.11879
0.067649,0.13287,0.79934,-0.19284
0.041618,0.19296,0.76549,-0.32234
0.043209,0.17689,0.7799,-0.2976
0.046646,0.20058,0.75284,-0.3411
0.07688,0.20928,0.71395,-0.15503
0.090898,0.12693,0.78227,-0.091172
0.043538,0.22777,0.72869,-0.39589
0.080815,0.19036,0.72882,-0.27629
0.043772,0.18118,0.77504,-0.18179
0.047086,0.20333,0.74958,-0.34885
0.079129,0.16719,0.75361,-0.10674
0.039618,0.17605,0.78439,-0.23231
0.035606,0.17545,0.78898,-0.39793
0.057932,0.23839,0.70372,-0.41233
0.060557,0.25304,0.68633,-0.39174
0.064194,0.12456,0.81126,-0.062401
0.083745,0.16839,0.74788,-0.12379
0.062908,0.17125,0.76589,-0.20418
0.066951,0.10472,0.82833,-0.06829
0.061791,0.21348,0.7248,-0.33349
0.044785,0.18037,0.77485,-0.28775
0.063628,0.19953,0.73684,-0.27964
0.044797,0.18522,0.76996,-0.25322
0.068452,0.11841,0.81324,-0.17647
0.12224,0.137,0.74074,-0.069797
0.05216,0.2221,0.72582,-0.30735
0.056277,0.19221,0.75146,-0.3746
0.024914,0.26027,0.7148,-0.46985
0.092105,0.16637,0.74146,-0.14218
0.048818,0.21778,0.7335,-0.36808
0.031222,0.13562,0.83319,-0.28978
0.043292,0.18719,0.76948,-0.28328
0.042114,0.18552,0.77236,-0.29362
0.070852,0.11736,0.81182,-0.082787
0.073766,0.13697,0.7891,-0.29993
0.071554,0.19501,0.73345,-0.23278
0.044255,0.23108,0.72465,-0.36425
0.033575,0.19855,0.76793,-0.40983
0.08132,0.1863,0.73238,-0.23003
0.054406,0.16628,0.77941,-0.20245
0.049089,0.21126,0.73969,-0.2666
0.071175,0.20689,0.7219,-0.33263
0.068754,0.16926,0.76191,-0.25084
0.041834,0.12594,0.83231,-0.1712
0.080046,0.10213,0.81779,-0.12402
0.040351,0.11761,0.8421,-0.18093
0.080074,0.21501,0.70494,-0.2616
0.099618,0.18491,0.71542,-0.20453
0.099311,0.25786,0.64285,-0.26769
0.057803,0.1714,0.77081,-0.23499
0.064305,0.27221,0.66356,-0.42731
0.067612,0.19232,0.74009,-0.29112
0.027603,0.21762,0.75477,-0.45342
0.10334,0.27833,0.61841,-0.26093
0.038418,0.14348,0.81806,-0.27013
0.024517,0.19318,0.78237,-0.33913
0.083369,0.19546,0.72125,-0.3254
0.096858,0.15561,0.74756,-0.25553
0.038262,0.15352,0.80818,-0.25678
0.093098,0.14605,0.76081,-0.15166
0.026683,0.11627,0.85701,-0.2518
0.042938,0.13953,0.81753,-0.24192
0.053163,0.17524,0.77166,-0.25887
0.043862,0.22296,0.73318,-0.44036
0.051034,0.22524,0.72372,-0.3092
0.069129,0.20141,0.72952,-0.23343
0.029578,0.22109,0.74938,-0.37448
0.069683,0.23045,0.69998,-0.3049
0.064092,0.10152,0.83443,-0.10143
0.094194,0.16978,0.7361,-0.24187
0.046286,0.19442,0.75934,-0.33016
0.065203,0.20771,0.72706,-0.22809
0.035991,0.13878,0.82523,-0.18968
0.065455,0.19999,0.73461,-0.33982
0.0394,0.23904,0.72166,-0.39842
0.048966,0.11695,0.83409,-0.14034
0.080483,0.25594,0.66365,-0.36958
0.082855,0.16774,0.74943,-0.29379
0.037865,0.13321,0.829,-0.22942
0.052585,0.19058,0.75694,-0.32155
0.073342,0.19742,0.72922,-0.30054
0.049283,0.22571,0.725,-0.30822
0.039443,0.16434,0.79627,-0.24302
0.059194,0.20207,0.7388,-0.34093
0.1087,0.22099,0.6702,-0.22368
0.066505,0.19214,0.74138,-0.25719
0.026782,0.24522,0.728,-0.38525
0.069825,0.14539,0.78479,-0.20202
0.063083,0.16995,0.76697,-0.25498
0.084991,0.1832,0.7319,-0.20026
0.073071,0.18133,0.74583,-0.28732
0.033834,0.13849,0.82775,-0.22819
0.087791,0.1954,0.71681,-0.19946
0.071582,0.10684,0.82153,-0.12023
0.07256,0.18308,0.74435,-0.16795
0.04684,0.14376,0.80934,-0.23062
0.063197,0.15934,0.77742,-0.27511
0.064794,0.1435,0.79157,-0.18197
0.081655,0.14607,0.77235,-0.1173
0.071809,0.12518,0.80312,-0.1766
0.051622,0.13144,0.81693,-0.17644
0.074569,0.11245,0.81302,-0.18939
0.048618,0.11253,0.83891,-0.13433
0.039849,0.085178,0.87497,-0.12253
0.064412,0.21697,0.71867,-0.2891
0.043092,0.16324,0.79375,-0.23144
0.08764,0.12637,0.78597,-0.057123
0.040754,0.21503,0.74414,-0.39574
0.064529,0.12168,0.81386,-0.17489
0.050068,0.12935,0.82047,-0.26405
0.094868,0.12126,0.78382,-0.08065
0.016665,0.21084,0.7725,-0.41009
0.042055,0.13771,0.8203,-0.25799
0.0894,0.1471,0.76357,-0.11606
0.030557,0.19946,0.76998,-0.31166
0.041683,0.13378,0.82451,-0.19676
0.038228,0.16901,0.79283,-0.32243
0.074972,0.16942,0.75561,-0.19128
0.05356,0.17588,0.77066,-0.25881
0.045557,0.23323,0.72131,-0.43486
0.037249,0.17714,0.78567,-0.31279
0.068271,0.16372,0.76795,-0.216
0.067406,0.13155,0.80104,-0.067195
0.042902,0.22027,0.73688,-0.42613
0.080902,0.162,0.75703,-0.14302
0.066732,0.16689,0.76633,-0.1957
0.076298,0.16708,0.75662,-0.19003
0.02636,0.16665,0.80694,-0.28004
0.094428,0.19273,0.71285,-0.2431
0.063683,0.13884,0.79755,-0.18006
0.078095,0.078058,0.84382,0.075119
0.08416,0.11895,0.79684,-0.073432
0.058908,0.22158,0.71949,-0.257
0.051391,0.21821,0.73046,-0.40843
0.047942,0.18978,0.76232,-0.34878
0.035831,0.16372,0.80045,-0.30298
0.068458,0.14543,0.78614,-0.21968
0.07448,0.14601,0.77947,-0.15962
0.063258,0.13488,0.80191,-0.21327
0.055908,0.14426,0.79975,-0.15848
0.064474,0.17461,0.76094,-0.17863
0.054308,0.1619,0.78372,-0.28188
0.056052,0.21268,0.73124,-0.27851
0.048157,0.13931,0.81247,-0.12626
0.045791,0.15644,0.7977,-0.23812
0.060945,0.1229,0.81616,-0.13115
0.062425,0.14136,0.79626,-0.19191
0.049662,0.17412,0.77627,-0.34558
0.10436,0.15576,0.73991,-0.16969
0.070009,0.14977,0.78022,-0.14752
0.090065,0.11643,0.79351,-0.054388
0.054569,0.15912,0.78641,-0.19819
0.041363,0.23852,0.72016,-0.29905
0.04324,0.18988,0.76681,-0.24441
0.066692,0.24294,0.69039,-0.4028
0.1255,0.18585,0.68855,-0.063418
0.045114,0.20706,0.74784,-0.32149
0.045566,0.22731,0.72711,-0.27679
0.065911,0.16507,0.76908,-0.21936
0.073249,0.16377,0.76307,-0.22559
0.065363,0.18334,0.7513,-0.38558
0.059948,0.24636,0.6937,-0.38917
0.070009,0.16069,0.76939,-0.15123
0.056123,0.14131,0.80262,-0.1844
0.044397,0.20643,0.74917,-0.3668
0.06884,0.22269,0.70849,-0.31165
0.084751,0.20161,0.71369,-0.36496
0.067492,0.20275,0.72966,-0.3034
0.060514,0.18673,0.75276,-0.23739
0.070708,0.17687,0.75242,-0.23921
0.072372,0.22594,0.70172,-0.29059
0.016652,0.26653,0.71682,-0.51976
0.070898,0.14353,0.78562,-0.12955
0.07508,0.12954,0.79541,-0.20366
0.018917,0.14339,0.83769,-0.34742
0.051782,0.21422,0.73407,-0.37794
0.036815,0.09228,0.87092,-0.11596
0.05388,0.11924,0.82688,-0.054848
0.066345,0.18601,0.74764,-0.21893
0.07504,0.22402,0.70088,-0.31776
0.054797,0.14014,0.80515,-0.18349
0.060194,0.18399,0.75577,-0.38628
0.092742,0.12644,0.78079,-0.10905
0.0372,0.20577,0.75703,-0.41068
0.072086,0.20779,0.72006,-0.18049
0.038658,0.24707,0.7143,-0.4747
0.063674,0.15401,0.78231,-0.11626
0.042578,0.22815,0.72921,-0.33234
0.076942,0.22329,0.69975,-0.35829
0.089351,0.10264,0.80805,-0.042659
0.084911,0.090665,0.82436,-0.029399
0.06636,0.11286,0.82078,-0.050185
0.027868,0.15778,0.81435,-0.27437
0.0662,0.14942,0.78446,-0.11754
0.053412,0.17577,0.77083,-0.22519
0.054283,0.12941,0.81627,-0.19728
0.027142,0.17585,0.79699,-0.30201
0.060871,0.15857,0.78062,-0.24301
0.092098,0.21252,0.69548,-0.26726
0.038406,0.13054,0.831,-0.20432
0.069554,0.23303,0.69754,-0.30663
0.096843,0.1289,0.77415,-0.044484
0.081246,0.15559,0.76303,-0.17071
0.047806,0.10252,0.84967,-0.11474
0.064326,0.1493,0.78633,-0.28362
0.063535,0.1352,0.80129,-0.030052
0.042302,0.12534,0.83237,-0.27608
0.041785,0.10096,0.85727,-0.16449
0.071471,0.10535,0.82314,-0.073542
0.10708,0.13381,0.75912,-0.092062
0.10235,0.11252,0.78513,-0.10473
0.056148,0.19109,0.75276,-0.32318
0.054726,0.16264,0.78259,-0.23843
0.13349,0.10254,0.76401,-0.009148
0.10487,0.11474,0.78042,-0.010932
0.052738,0.12084,0.82646,-0.076447
0.0668,0.16952,0.76368,-0.28217
0.072326,0.22239,0.70538,-0.32304
0.057132,0.20136,0.74151,-0.29192
0.065646,0.17797,0.75651,-0.265
0.043914,0.15763,0.79845,-0.26425
0.049215,0.17162,0.77922,-0.38743
0.088123,0.1277,0.78424,-0.074408
0.047157,0.14345,0.80939,-0.1407
0.051169,0.17733,0.77143,-0.32956
0.066868,0.19437,0.7387,-0.33089
0.093455,0.14063,0.76603,-0.15908
0.059938,0.18618,0.75383,-0.25486
0.092606,0.14502,0.76231,-0.076337
0.052477,0.1806,0.76692,-0.34031
0.070517,0.12335,0.80613,-0.11169
0.061025,0.12297,0.81597,-0.13834
0.05584,0.13168,0.81245,-0.2052
0.080548,0.13229,0.78718,-0.19728
0.062123,0.15528,0.78258,-0.18014
0.073132,0.13679,0.79011,-0.20758
0.073591,0.17291,0.75352,-0.20482
0.046954,0.19393,0.75921,-0.34878
0.046858,0.14929,0.80382,-0.20152
0.040003,0.18677,0.77326,-0.34108
0.033671,0.18869,0.77774,-0.35136
0.055302,0.22169,0.72296,-0.39621
0.094,0.18953,0.71647,-0.36933
0.050083,0.21753,0.73231,-0.3063
0.086911,0.15091,0.76226,-0.21288
0.061997,0.16145,0.77661,-0.14946
0.10693,0.14987,0.74337,-0.025875
0.061738,0.14252,0.79564,-0.30024
0.082911,0.20397,0.71312,-0.2528
0.080062,0.11516,0.80486,-0.07793
0.048643,0.1293,0.82206,-0.20374
0.077683,0.20035,0.72191,-0.19349
0.056782,0.17328,0.77005,-0.15882
0.059963,0.19058,0.74939,-0.28312
0.092585,0.23785,0.66954,-0.351
0.10833,0.14567,0.74602,-0.066989
0.061585,0.15508,0.78333,-0.13403
0.055169,0.24733,0.69754,-0.4058
0.071015,0.12228,0.80686,-0.088467
0.04956,0.21044,0.74004,-0.35346
0.084898,0.11052,0.80462,-0.085448
0.044385,0.18941,0.76614,-0.31126
0.036754,0.16239,0.80083,-0.25056
0.053058,0.25462,0.69231,-0.44052
0.040877,0.16538,0.79371,-0.31282
0.066554,0.13586,0.79755,-0.13037
0.13502,0.11034,0.75461,-0.019146
0.072825,0.13442,0.79268,-0.14499
0.040508,0.16776,0.79175,-0.30491
0.080197,0.12453,0.79535,-0.066288
0.029748,0.21533,0.75486,-0.35047
0.079434,0.14239,0.77817,-0.16254
0.07824,0.16839,0.75326,-0.1992
0.082966,0.15621,0.76087,-0.26801
0.13782,0.09012,0.77208,0.12424
0.065222,0.11298,0.82182,-0.19769
0.088585,0.13977,0.77164,-0.076525
0.077892,0.10718,0.81504,-0.13876
0.12321,0.1543,0.72242,-0.057569
0.081686,0.11899,0.79934,-0.0021483
0.07348,0.17403,0.75249,-0.20981
0.053615,0.15486,0.79152,-0.2575
0.054815,0.21188,0.73342,-0.37006
0.037794,0.11364,0.84855,-0.23864
0.064292,0.18158,0.75418,-0.28259
0.045742,0.15425,0.80003,-0.26444
0.056923,0.11394,0.82912,-0.10792
0.073797,0.14472,0.7815,-0.14533
0.056775,0.17364,0.76965,-0.25606
0.064425,0.16024,0.77526,-0.15694
0.041363,0.13012,0.82851,-0.20423
0.058831,0.11439,0.8268,-0.28892
0.050089,0.088511,0.86134,-0.039659
0.048723,0.23324,0.71805,-0.41567
0.037625,0.24099,0.72148,-0.37423
0.045154,0.12748,0.82737,-0.20596
0.064892,0.1685,0.76662,-0.24626
0.087911,0.14067,0.77142,0.013559
0.078794,0.17948,0.74178,-0.19641
0.068883,0.17861,0.7525,-0.32499
0.07876,0.16134,0.75986,-0.26114
0.042569,0.28188,0.67559,-0.46046
0.053034,0.12501,0.82201,-0.14551
0.06428,0.19108,0.74458,-0.21076
0.067135,0.17297,0.75995,-0.26276
0.11237,0.10972,0.77788,-0.06901
0.086323,0.15086,0.7629,-0.1555
0.11703,0.17742,0.70558,-0.17983
0.10046,0.17554,0.72408,-0.19255
0.058831,0.14277,0.79841,-0.21312
0.081292,0.16132,0.75737,-0.25326
0.069449,0.12371,0.8068,-0.16503
0.057591,0.1784,0.76409,-0.37337
0.07172,0.1686,0.75966,-0.19863
0.044058,0.15571,0.80016,-0.28344
0.054714,0.18907,0.75617,-0.24229
0.054966,0.16718,0.77786,-0.17578
0.041055,0.11541,0.84354,-0.1561
0.049298,0.13949,0.81121,-0.20288
0.078022,0.12111,0.80097,-0.11472
0.056385,0.18174,0.76194,-0.29212
0.067551,0.19065,0.74188,-0.29374
0.062538,0.19596,0.74164,-0.19082
0.10712,0.1504,0.74255,-0.092057
0.074043,0.12916,0.79676,-0.18433
0.083089,0.11933,0.79756,-0.10211
0.057662,0.27282,0.66945,-0.46469
0.054597,0.21141,0.73403,-0.38973
0.10808,0.12312,0.76877,-0.20064
0.05956,0.18914,0.75133,-0.27014
0.065452,0.19085,0.74372,-0.23323
0.047625,0.18942,0.76309,-0.28968
0.072988,0.13913,0.78782,-0.14875
0.12528,0.13887,0.73585,-0.056237
0.10441,0.1349,0.76069,-0.12028
0.052083,0.19986,0.74799,-0.31747
0.03232,0.17144,0.79634,-0.31151
0.073145,0.16672,0.76006,-0.22831
0.067425,0.16859,0.76401,-0.2339
0.072114,0.1715,0.75639,-0.26144
0.073695,0.18434,0.74203,-0.22941
0.069757,0.17396,0.75623,-0.22609
0.027434,0.15011,0.82241,-0.27918
0.065791,0.1509,0.78331,-0.27205
0.069806,0.13907,0.79105,-0.17634
0.020717,0.16046,0.81882,-0.3623
0.053892,0.22367,0.72245,-0.36666
0.043117,0.22474,0.73214,-0.34656
0.026354,0.19589,0.77771,-0.3119
0.066717,0.22305,0.71029,-0.37404
0.095628,0.15178,0.75259,-0.12727
0.093105,0.1351,0.77188,-0.1243
0.0378,0.15627,0.80598,-0.32258
0.042966,0.14796,0.80902,-0.20871
0.049175,0.18091,0.76989,-0.35922
0.076228,0.12926,0.79453,-0.13716
0.061015,0.16794,0.77104,-0.28977
0.12026,0.17758,0.70199,-0.14331
0.088994,0.14876,0.76232,-0.17592
0.10622,0.1457,0.74808,-0.14106
0.079969,0.16659,0.75329,-0.21163
0.11209,0.16628,0.72152,-0.10179
0.034523,0.19382,0.7716,-0.25506
0.092695,0.15176,0.75552,-0.075437
0.079317,0.20125,0.71944,-0.31935
0.018655,0.22511,0.75622,-0.37933
0.025542,0.13294,0.84149,-0.21294
0.088295,0.16359,0.74822,-0.24032
0.035886,0.14031,0.82382,-0.18002
0.056646,0.13007,0.81327,-0.14766
0.068988,0.11629,0.81477,-0.20665
0.078345,0.058686,0.86302,-0.010559
0.022945,0.090542,0.88653,-0.18302
0.072674,0.11148,0.81585,-0.098674
0.054871,0.1162,0.8289,-0.23387
0.091203,0.159,0.74974,-0.099302
0.1001,0.18195,0.71788,-0.2391
0.06128,0.15391,0.78481,-0.21497
0.020495,0.16925,0.81025,-0.3186
0.037806,0.2037,0.75851,-0.29089
0.038295,0.13371,0.82805,-0.19886
0.04,0.11194,0.84806,-0.15244
0.0634,0.11026,0.82639,-0.032169
0.058175,0.17702,0.76475,-0.26989
0.045471,0.17849,0.77596,-0.14938
0.057338,0.1585,0.78419,-0.28466
0.063274,0.11942,0.81724,-0.12131
0.07788,0.082363,0.83982,-0.047942
0.0586,0.13445,0.80682,-0.15593
0.044465,0.13354,0.82199,-0.21784
0.061745,0.1521,0.78621,-0.2243
0.046305,0.18333,0.77037,-0.21202
0.048452,0.12404,0.82758,-0.1596
0.074215,0.10403,0.82176,-0.067646
0.036446,0.2159,0.74776,-0.27651
0.036375,0.14292,0.82074,-0.25225
0.048154,0.11642,0.83542,-0.17151
0.024809,0.13728,0.83791,-0.24881
0.054006,0.16729,0.77876,-0.24305
0.073188,0.14666,0.78026,-0.13533
0.05648,0.089883,0.8537,-0.14594
0.068166,0.17263,0.75924,-0.22549
0.08368,0.10788,0.80848,-0.091614
0.072582,0.11162,0.81563,-0.031178
0.10087,0.10534,0.79357,-0.055098
0.054098,0.17624,0.76966,-0.20131
0.072705,0.075991,0.85128,-0.045921
0.058015,0.14414,0.79785,-0.24302
0.061982,0.14033,0.79759,-0.16025
0.056717,0.10394,0.83934,-0.041909
0.027772,0.18753,0.78472,-0.31978
0.01556,0.15482,0.82957,-0.30385
0.0608,0.13079,0.80854,-0.1319
0.060369,0.16495,0.77464,-0.18161
0.07132,0.15568,0.77297,-0.2031
0.043843,0.17046,0.7857,-0.2943
0.10008,0.21068,0.68917,-0.17652
0.026271,0.12418,0.84955,-0.19352
0.037342,0.15527,0.80738,-0.25294
0.091597,0.15394,0.75453,-0.18888
0.049074,0.15546,0.79555,-0.23362
0.054012,0.10182,0.8441,-0.12823
0.070231,0.13966,0.79016,-0.13542
0.066234,0.128,0.80566,-0.18723
0.026671,0.22562,0.74773,-0.33641
0.030348,0.15572,0.8139,-0.21473
0.055883,0.14933,0.79479,-0.23588
0.092812,0.13938,0.76767,-0.12399
0.091477,0.11378,0.79478,-0.037581
0.052246,0.19821,0.74955,-0.32764
0.10795,0.16545,0.72672,-0.15359
0.035335,0.12689,0.83781,-0.20114
0.079538,0.1664,0.75409,-0.19529
0.046412,0.13307,0.82046,-0.1863
0.066274,0.19234,0.74134,-0.21127
0.049212,0.16743,0.78336,-0.20326
0.060492,0.16183,0.77768,-0.21235
0.073175,0.10082,0.82615,-0.069619
0.060652,0.10302,0.83632,-0.01513
0.034283,0.14832,0.81738,-0.258
0.076,0.10956,0.81452,-0.091803
0.050363,0.15745,0.79222,-0.246
0.040514,0.11294,0.84655,-0.1773
0.050052,0.11669,0.8333,-0.16971
0.084382,0.15865,0.75698,-0.27673
0.052674,0.11195,0.83538,-0.20839
0.088698,0.10265,0.80859,0.049857
0.11063,0.12556,0.76381,-0.018268
0.11062,0.20699,0.68242,-0.18885
0.071188,0.13435,0.79428,-0.20264
0.049111,0.14666,0.80439,-0.14441
0.04104,0.19227,0.76669,-0.25357
0.067923,0.18654,0.74551,-0.29446
0.095834,0.1863,0.7179,-0.16111
0.086745,0.12093,0.7923,-0.10679
0.031917,0.13587,0.83222,-0.23481
0.036428,0.20624,0.7574,-0.4266
0.071668,0.18038,0.74806,-0.23292
0.034458,0.23359,0.73199,-0.42055
0.076502,0.11034,0.81318,-0.072156
0.092825,0.17,0.73714,-0.24261
0.061874,0.17182,0.76631,-0.19848
0.0093631,0.15258,0.83805,-0.35383
0.060455,0.14727,0.79218,-0.1267
0.0598,0.19728,0.74294,-0.22552
0.070603,0.15628,0.77316,-0.1753
0.056068,0.1085,0.83543,-0.13419
0.052763,0.15626,0.79098,-0.25223
0.045945,0.1164,0.8376,-0.12995
0.046988,0.17878,0.77424,-0.28204
0.012757,0.24938,0.73792,-0.53402
0.067603,0.17376,0.75867,-0.23183
0.027797,0.26028,0.71194,-0.45423
0.021375,0.20116,0.77754,-0.42733
0.067766,0.18136,0.75079,-0.23832
0.051025,0.14785,0.80113,-0.14639
0.079563,0.13633,0.78418,-0.061002
0.053797,0.14272,0.80349,-0.19837
0.022588,0.18906,0.78836,-0.38454
0.033018,0.19622,0.77077,-0.34315
0.051843,0.13164,0.81652,-0.20906
0.083443,0.13595,0.78069,-0.18337
0.034145,0.1938,0.77201,-0.33863
0.062486,0.14293,0.79465,-0.25587
0.026511,0.16688,0.80652,-0.22305
0.0318,0.17141,0.79669,-0.36504
0.058474,0.14241,0.79917,-0.21345
0.11365,0.10156,0.78472,-0.014303
0.044203,0.13492,0.82091,-0.17462
0.041437,0.083822,0.87484,-0.16665
0.058625,0.12771,0.81369,-0.11184
0.043563,0.14146,0.81505,-0.24974
0.042471,0.095302,0.86223,-0.08516
0.066388,0.15739,0.77622,-0.26007
0.036406,0.19852,0.76511,-0.37349
0.032043,0.12266,0.84536,-0.15693
0.072942,0.17602,0.75107,-0.22357
0.039689,0.21485,0.74551,-0.33079
0.035271,0.14371,0.82106,-0.3047
0.037049,0.14978,0.81315,-0.22194
0.07468,0.17209,0.75322,-0.22113
0.053631,0.19757,0.7488,-0.25868
0.036985,0.12573,0.83729,-0.17016
0.082274,0.15135,0.76627,-0.18884
0.029748,0.14851,0.82171,-0.26468
0.032511,0.099603,0.86792,-0.1456
0.10353,0.15669,0.73978,-0.084596
0.084877,0.19755,0.71762,-0.21347
0.059951,0.17053,0.76954,-0.14012
0.034625,0.15689,0.80847,-0.18181
0.075609,0.10352,0.8209,-0.038492
0.051631,0.13331,0.81506,-0.26554
0.053994,0.12818,0.81788,-0.20132
0.049742,0.1154,0.83496,-0.073571
0.08892,0.14948,0.76169,-0.071257
0.068332,0.12866,0.8031,-0.15003
0.13469,0.13012,0.73524,0.047931
0.097028,0.12329,0.77965,-0.036131
0.073452,0.11805,0.80857,-0.075244
0.026372,0.23813,0.73556,-0.32527
0.053754,0.12986,0.81636,-0.18449
0.047049,0.096498,0.85651,-0.10867
0.087071,0.10478,0.80822,-0.08889
0.065086,0.14867,0.78619,-0.17302
0.060477,0.15722,0.7823,-0.2044
0.08248,0.16387,0.75374,-0.22762
0.050563,0.15524,0.79422,-0.2606
0.083523,0.11014,0.80637,-0.16564
0.042483,0.18551,0.77194,-0.26413
0.066095,0.12938,0.80453,-0.085505
0.057862,0.25869,0.68345,-0.35523
0.079289,0.16875,0.75196,-0.26026
0.090972,0.10028,0.80874,0.01358
0.05324,0.14195,0.8049,-0.25162
0.079775,0.17124,0.749,-0.20821
0.096151,0.13507,0.7689,-0.10131
0.10493,0.15038,0.7447,-0.08365
0.081,0.20767,0.71133,-0.21596
0.044978,0.18683,0.76815,-0.2986
0.039455,0.16993,0.79067,-0.24678
0.10296,0.14602,0.75102,-0.10098
0.1266,0.069329,0.80403,0.12552
0.055403,0.10034,0.84419,-0.13437
0.040385,0.12088,0.8387,-0.17531
0.032735,0.10064,0.86662,-0.082473
0.040222,0.14868,0.8111,-0.22428
0.083788,0.19489,0.72131,-0.18935
0.080369,0.1753,0.74431,-0.21584
0.049102,0.1035,0.8474,-0.19613
0.044335,0.17166,0.78393,-0.2854
0.081754,0.083329,0.83492,-0.028726
0.048686,0.18074,0.77058,-0.26554
0.070397,0.11501,0.81465,-0.12495
0.064028,0.1404,0.79553,-0.22616
0.058582,0.18812,0.75328,-0.17178
0.050662,0.20313,0.74618,-0.34502
0.052089,0.13403,0.81394,-0.18237
0.031145,0.18655,0.78245,-0.40773
0.079154,0.17353,0.74737,-0.13434
0.058809,0.12411,0.81712,-0.095114
0.11148,0.21434,0.67418,-0.22815
0.050834,0.20741,0.74173,-0.26441
0.088418,0.16657,0.74507,-0.19749
0.062729,0.1626,0.77472,-0.14351
0.097935,0.11039,0.79177,0.011082
0.051646,0.16646,0.78192,-0.31486
0.016542,0.17123,0.81226,-0.35078
0.050523,0.1413,0.80817,-0.18889
0.074265,0.16284,0.7629,-0.21241
0.059994,0.1593,0.78071,-0.17641
0.048603,0.25222,0.69915,-0.40547
0.057378,0.10231,0.84027,-0.088932
0.059578,0.20208,0.73838,-0.25183
0.069215,0.11591,0.81482,-0.15314
0.035597,0.21621,0.74819,-0.40754
0.029837,0.2247,0.74541,-0.35844
0.054243,0.16811,0.77773,-0.30113
0.093695,0.14085,0.76548,-0.14978
0.062495,0.11698,0.82051,-0.1035
0.078766,0.20507,0.71622,-0.19722
0.021726,0.17034,0.80793,-0.2954
0.078686,0.2032,0.71805,-0.21319
0.049895,0.19049,0.75966,-0.287
0.047018,0.15457,0.79844,-0.22924
0.023557,0.15263,0.82382,-0.25153
0.075686,0.14688,0.77739,-0.31677
0.061948,0.16452,0.77348,-0.17432
0.052385,0.13719,0.81044,-0.19937
0.053708,0.16051,0.78571,-0.17368
0.042858,0.25698,0.7001,-0.46244
0.052455,0.16897,0.77867,-0.32158
0.057065,0.17567,0.76722,-0.2995
0.062775,0.22422,0.71297,-0.32478
0.037443,0.22158,0.74108,-0.44213
0.1013,0.0984,0.8002,0.02891
0.083074,0.22894,0.68799,-0.28351
0.083966,0.12377,0.79219,-0.10537
0.061742,0.19315,0.74499,-0.28019
0.025305,0.21205,0.76276,-0.47259
0.074674,0.1911,0.73422,-0.23682
0.066412,0.17138,0.76224,-0.24741
0.085462,0.18026,0.73431,-0.19967
0.055314,0.15998,0.7847,-0.14681
0.047302,0.23353,0.71922,-0.34501
0.020846,0.11959,0.85959,-0.19036
0.063209,0.15319,0.78367,-0.28673
0.053412,0.14105,0.80559,-0.16226
0.060828,0.2254,0.71382,-0.38615
0.10806,0.13655,0.75541,-0.040124
0.073978,0.13706,0.78894,-0.16596
0.081446,0.16614,0.75241,-0.16587
0.091871,0.18082,0.72727,-0.21691
0.030502,0.14326,0.82624,-0.25431
0.043037,0.11565,0.84131,-0.14317
0.025932,0.24272,0.73134,-0.42692
0.044197,0.19486,0.76088,-0.30576
0.047212,0.16395,0.78876,-0.32029
0.10555,0.1375,0.75697,-0.032429
0.023354,0.16349,0.81312,-0.32858
0.090649,0.12565,0.7837,-0.054202
0.062812,0.16897,0.76825,-0.2177
0.050043,0.12006,0.82983,-0.25377
0.033243,0.19088,0.77591,-0.34801
0.064738,0.1303,0.80497,-0.077153
0.082446,0.16604,0.75154,-0.16541
0.1117,0.081098,0.80721,0.038371
0.044729,0.14053,0.81478,-0.23953
0.072529,0.17305,0.75449,-0.28218
0.024671,0.17957,0.79577,-0.3255
0.040243,0.21961,0.74011,-0.37807
0.085428,0.13638,0.77822,-0.037138
0.073369,0.13132,0.7953,-0.10437
0.090708,0.14812,0.76112,-0.14199
0.097366,0.1288,0.77378,-0.12623
0.042855,0.17891,0.77813,-0.23874
0.070354,0.074966,0.85472,-0.018818
0.071646,0.18961,0.73879,-0.14739
0.082695,0.12056,0.79684,-0.044156
0.051382,0.15433,0.79429,-0.22614
0.024754,0.14211,0.83315,-0.24914
0.12034,0.084412,0.79537,0.033092
0.099729,0.11102,0.78926,-0.045456
0.055302,0.15287,0.79177,-0.16282
0.07244,0.13624,0.79114,-0.13952
0.058258,0.20099,0.74077,-0.35279
0.039083,0.13574,0.82518,-0.2022
0.10289,0.14408,0.75305,-0.012636
0.041732,0.16655,0.79165,-0.3415
0.072923,0.1121,0.81498,-0.11943
0.054815,0.22884,0.71634,-0.41574
0.05776,0.15096,0.79115,-0.21347
0.070535,0.096311,0.83312,-0.070206
0.074015,0.1013,0.82467,-0.063194
0.042625,0.11169,0.84563,-0.15792
0.096566,0.15001,0.75349,-0.13941
0.04096,0.14853,0.81051,-0.25785
0.067766,0.11855,0.8138,-0.21169
0.056708,0.12904,0.81425,-0.1572
0.054849,0.11541,0.8296,-0.25061
0.0484,0.11101,0.84066,-0.15866
0.068908,0.10069,0.83036,-0.034335
0.056465,0.11758,0.82598,-0.15252
0.057298,0.12622,0.81648,-0.1583
0.085883,0.13562,0.77853,-0.1601
0.067612,0.11869,0.81354,-0.15136
0.094982,0.15971,0.74542,-0.1417
0.044262,0.1891,0.76672,-0.27896
0.023418,0.14113,0.83555,-0.28124
0.034098,0.17397,0.79198,-0.28349
0.083243,0.19241,0.72446,-0.21673
0.064477,0.1507,0.78476,-0.12578
0.040295,0.12626,0.83344,-0.19023
0.060535,0.11327,0.8262,-0.050476
0.07916,0.14949,0.77125,-0.16406
0.048662,0.15109,0.80025,-0.20734
0.057329,0.10255,0.84017,-0.16253
0.054077,0.14739,0.79855,-0.19031
0.031729,0.17906,0.78914,-0.36714
0.04768,0.18691,0.76546,-0.31053
0.047178,0.1655,0.78724,-0.32274
0.068,0.13932,0.79273,-0.20599
0.09744,0.099003,0.80359,-0.013618
0.097988,0.10329,0.79867,0.02014
0.081658,0.171,0.74735,-0.22025
0.096837,0.18202,0.72107,-0.22893
0.04156,0.15133,0.80715,-0.22413
0.096231,0.10472,0.79902,-0.024164
0.034655,0.1427,0.82266,-0.28865
0.0916,0.11159,0.79686,-0.038878
0.084542,0.11726,0.79826,-0.085807
0.084982,0.088378,0.82651,0.022461
0.083511,0.075862,0.84063,0.01281
0.067135,0.1081,0.8247,-0.089174
0.051018,0.12128,0.82775,-0.21486
0.054338,0.14134,0.80439,-0.17456
0.09352,0.095369,0.81108,-0.05417
0.10112,0.10381,0.79514,-0.070899
0.075634,0.10415,0.82027,-0.11787
0.07084,0.17053,0.75862,-0.19755
0.043314,0.14408,0.81259,-0.21262
0.077529,0.13328,0.78916,-0.15333
0.046372,0.17408,0.77957,-0.25627
0.076222,0.17202,0.75183,-0.2246
0.06764,0.15484,0.77757,-0.16632
0.11007,0.061378,0.82857,-0.0020028
0.056871,0.16282,0.78021,-0.24957
0.027151,0.15942,0.81341,-0.23513
0.085538,0.10962,0.80485,-0.13591
0.067117,0.11608,0.81688,-0.15225
0.057225,0.13625,0.80653,-0.1624
0.06468,0.15589,0.77935,-0.21457
0.049582,0.19087,0.75954,-0.2657
0.053905,0.19935,0.74683,-0.32455
0.068151,0.10393,0.82807,-0.036648
0.057757,0.19702,0.7453,-0.32847
0.068172,0.1659,0.76592,-0.18692
0.065283,0.16738,0.76732,-0.1742
0.1132,0.1053,0.78143,0.030973
0.045658,0.11006,0.84437,-0.2092
0.11293,0.12346,0.76357,0.065366
0.072123,0.16619,0.76155,-0.28233
0.08392,0.13382,0.78226,-0.064882
0.083403,0.15278,0.76378,-0.10803
0.042603,0.1395,0.81787,-0.21889
0.039326,0.12739,0.8333,-0.20808
0.078948,0.085745,0.8353,-0.075351
0.025788,0.16016,0.81414,-0.32514
0.037569,0.13417,0.82826,-0.26225
0.05624,0.12003,0.82373,-0.22498
0.059572,0.13387,0.80657,-0.15619
0.089378,0.13654,0.77412,-0.14488
0.064145,0.19774,0.73812,-0.36614
0.0716,0.149,0.77937,-0.13437
0.063262,0.14695,0.78974,-0.26478
0.07476,0.15298,0.77234,-0.24796
0.034809,0.18286,0.7823,-0.42483
0.10941,0.17046,0.72011,-0.12876
0.078923,0.13554,0.78549,-0.12865
0.058742,0.1185,0.82276,-0.17621
0.053689,0.10986,0.83648,-0.12283
0.036218,0.1184,0.84531,-0.21647
0.057572,0.20417,0.73822,-0.32432
0.039895,0.11012,0.84991,-0.16429
0.079335,0.15268,0.76795,-0.096531
0.061852,0.12477,0.81326,-0.15694
0.068138,0.16685,0.7651,-0.20599
0.065135,0.12859,0.80635,-0.15253
0.060178,0.17504,0.76492,-0.2054
0.048935,0.12083,0.8301,-0.18899
0.050982,0.14966,0.79942,-0.22481
0.019871,0.15206,0.82811,-0.27991
0.066074,0.17171,0.76214,-0.3192
0.067415,0.17051,0.76209,-0.15393
0.059218,0.17043,0.77028,-0.28961
0.049757,0.13151,0.81872,-0.14047
0.055745,0.1363,0.80793,-0.24749
0.041963,0.12561,0.83243,-0.25445
0.081615,0.13362,0.78483,-0.17105
0.079529,0.12537,0.79514,-0.12445
0.080418,0.15917,0.76031,-0.1512
0.1156,0.15759,0.72688,-0.096612
0.029794,0.14331,0.82685,-0.23006
0.090505,0.2166,0.693,-0.17686
0.10942,0.14488,0.74574,-0.098749
0.08204,0.13961,0.7783,-0.10478
0.078517,0.15931,0.76228,-0.18926
0.040837,0.14736,0.81182,-0.23375
0.070043,0.12121,0.80874,-0.15484
0.037843,0.22026,0.74182,-0.36453
0.063523,0.1044,0.83207,-0.11811
0.086228,0.1451,0.7687,-0.10625
0.070652,0.12848,0.80087,-0.21702
0.04704,0.08968,0.86328,-0.10506
0.033643,0.14282,0.82354,-0.22612
0.017905,0.15692,0.8252,-0.34708
0.096391,0.13853,0.76512,-0.15579
0.041868,0.16275,0.79538,-0.27574
0.084683,0.097203,0.8181,0.099155
0.074834,0.16226,0.76294,-0.183
0.060403,0.14387,0.79578,-0.17773
0.049769,0.18454,0.7657,-0.26649
0.052431,0.12682,0.8208,-0.14241
0.092265,0.18664,0.72115,-0.24755
0.0942,0.14501,0.76083,-0.24399
0.076108,0.13044,0.79345,-0.10441
0.092766,0.21981,0.68738,-0.23263
0.054243,0.14617,0.79961,-0.14011
0.062674,0.11154,0.8258,-0.17102
0.080357,0.20284,0.71679,-0.26081
0.062203,0.17799,0.75982,-0.2515
0.094775,0.14952,0.7557,-0.12077
0.060092,0.17449,0.76532,-0.18762
0.050828,0.15647,0.7927,-0.19938
0.056286,0.12016,0.82358,-0.1511
0.045028,0.18849,0.76646,-0.31685
0.080868,0.15933,0.75976,-0.20123
0.064911,0.1225,0.8127,-0.18468
0.074437,0.12371,0.8018,-0.10391
0.071246,0.12527,0.80349,-0.11609
0.082449,0.1131,0.80453,-0.098449
0.080197,0.14445,0.77536,-0.17174
0.057591,0.18089,0.7616,-0.32357
0.059886,0.076372,0.86376,-0.071756
0.086902,0.10384,0.80931,0.014328
0.04308,0.15707,0.79977,-0.32191
0.040178,0.17923,0.78059,-0.32241
0.091449,0.22607,0.68251,-0.37262
0.036508,0.27157,0.69192,-0.53065
0.034668,0.2503,0.71504,-0.42746
0.094043,0.21738,0.68858,-0.28311
0.058788,0.15491,0.7863,-0.18205
0.11142,0.1394,0.74922,-0.044618
0.045843,0.18462,0.76951,-0.22886
0.090695,0.12822,0.78108,-0.090088
0.064446,0.10583,0.82966,-0.033683
0.045154,0.12026,0.83454,-0.1808
0.094529,0.11883,0.78674,-0.052774
0.085631,0.19283,0.72143,-0.16519
0.052068,0.20557,0.74244,-0.23516
0.052126,0.19597,0.7519,-0.29971
0.048609,0.14982,0.80153,-0.29133
0.054923,0.16621,0.77886,-0.27233
0.053978,0.18153,0.76442,-0.34569
0.051046,0.18234,0.76662,-0.25586
0.0045785,0.11421,0.88122,-0.23383
0.048886,0.17842,0.77268,-0.22459
0.059138,0.12864,0.81222,-0.11662
0.065095,0.14215,0.79267,-0.17023
0.055062,0.11234,0.8326,-0.16085
0.06508,0.18085,0.75407,-0.20364
0.10871,0.18841,0.7029,-0.16918
0.063769,0.19735,0.73895,-0.23919
0.024114,0.2139,0.762,-0.39779
0.036489,0.16212,0.80138,-0.28008
0.04728,0.14709,0.80574,-0.21423
0.06832,0.20766,0.72402,-0.24702
0.10701,0.14819,0.74486,-0.1028
0.021234,0.12864,0.85013,-0.18278
0.068277,0.2401,0.69167,-0.41869
0.030486,0.26364,0.70594,-0.44021
0.054468,0.16266,0.78281,-0.2751
0.043354,0.16738,0.78926,-0.2777
0.026289,0.11304,0.8607,-0.1832
0.083074,0.15814,0.75872,-0.17349
0.10572,0.14267,0.75168,-0.008872
0.03104,0.18843,0.78057,-0.32035
0.022674,0.23554,0.74177,-0.36361
0.098012,0.25354,0.64853,-0.27386
0.060671,0.1179,0.82138,-0.092098
0.064317,0.12442,0.81124,-0.075254
0.057138,0.23026,0.71246,-0.37579
0.033702,0.13495,0.83143,-0.2464
0.065348,0.2277,0.7069,-0.3855
0.052557,0.16602,0.78146,-0.31199
0.098132,0.13223,0.76954,-0.079906
0.095606,0.151,0.75341,-0.10729
0.082372,0.10494,0.81282,-0.038579
0.037883,0.15734,0.80483,-0.18621
0.11096,0.17119,0.71792,-0.14658
0.054403,0.15135,0.79441,-0.20606
0.050012,0.12494,0.82498,-0.14294
0.08296,0.17989,0.73719,-0.23587
0.035625,0.14354,0.82084,-0.23371
0.045348,0.24153,0.71312,-0.35469
0.034822,0.13416,0.83102,-0.19744
0.069698,0.1031,0.82714,-0.11702
0.055578,0.11094,0.83355,-0.128
0.067948,0.14971,0.78238,-0.2066
0.042988,0.18751,0.76952,-0.32994
0.029289,0.1613,0.80941,-0.26396
0.051945,0.17083,0.77728,-0.25452
0.079086,0.088228,0.83266,-0.066462
0.044495,0.14395,0.81149,-0.1805
0.061874,0.14737,0.79082,-0.18482
0.024495,0.15503,0.82058,-0.34268
0.063311,0.15516,0.7815,-0.24485
0.049369,0.22618,0.72447,-0.40766
0.055194,0.10545,0.83943,-0.18602
0.051726,0.18883,0.75926,-0.35681
0.029498,0.16243,0.80801,-0.26056
0.043366,0.092028,0.86461,-0.028964
0.039665,0.18493,0.77538,-0.29521
0.073271,0.14144,0.78529,-0.17291
0.041058,0.21762,0.7415,-0.39904
0.051563,0.23416,0.71432,-0.33128
0.051852,0.16476,0.78335,-0.14838
0.075778,0.19071,0.73353,-0.22187
0.049323,0.087006,0.86367,-0.10395
0.032505,0.089591,0.87799,-0.1388
0.024892,0.22582,0.74934,-0.3836
0.047815,0.15198,0.80021,-0.21231
0.038735,0.31942,0.64184,-0.47429
0.056385,0.19215,0.75143,-0.30933
0.059308,0.2171,0.72374,-0.28079
0.058815,0.16463,0.77655,-0.11469
0.033631,0.15474,0.81165,-0.14932
0.047963,0.19196,0.76002,-0.32105
0.069135,0.15318,0.77764,-0.18677
0.058938,0.1322,0.80882,-0.17266
0.057883,0.14303,0.79908,-0.18342
0.032135,0.13187,0.83596,-0.13362
0.029437,0.12378,0.8468,-0.12333
0.089034,0.11449,0.79647,-0.046936
0.059742,0.1139,0.82643,-0.085033
0.096228,0.17745,0.72632,-0.11765
0.056172,0.14147,0.80229,-0.13141
0.040412,0.1626,0.79698,-0.2616
0.039465,0.13553,0.82506,-0.21716
0.038788,0.11596,0.84525,-0.19971
0.063308,0.18088,0.75582,-0.26219
0.074597,0.16353,0.7618,-0.14251
0.078065,0.14591,0.77594,-0.088111
0.08104,0.12163,0.79732,-0.045238
0.11097,0.15807,0.73096,-0.03643
0.046517,0.18414,0.76942,-0.36164
0.070538,0.23695,0.69247,-0.30258
0.066105,0.17115,0.76286,-0.23558
0.042185,0.17425,0.78357,-0.24952
0.013415,0.10163,0.88494,-0.22689
0.027065,0.16177,0.81116,-0.25554
0.11745,0.14279,0.73963,-0.082828
0.036668,0.26532,0.69808,-0.41411
0.080286,0.16349,0.7563,-0.22823
0.045022,0.14231,0.81267,-0.23641
0.072858,0.091049,0.8361,-0.097484
0.060148,0.20215,0.7377,-0.28312
0.062142,0.083772,0.85409,-0.061802
0.065277,0.142,0.79272,-0.22491
0.075557,0.074652,0.8498,0.04171
0.059886,0.12539,0.81474,-0.14313
0.066665,0.12641,0.80695,-0.095489
0.042083,0.15872,0.79922,-0.19111
0.055855,0.18384,0.76035,-0.31306
0.064231,0.096954,0.83882,-0.13332
0.05908,0.20804,0.7329,-0.32477
0.064766,0.10078,0.8345,-0.16794
0.031243,0.21074,0.75795,-0.35362
0.035385,0.13638,0.82824,-0.20594
0.070289,0.14252,0.78725,-0.20186
0.069117,0.15991,0.77097,-0.19211
0.048385,0.18709,0.76447,-0.41367
0.070197,0.20478,0.72497,-0.22629
0.058111,0.10126,0.84061,-0.15145
0.055852,0.18357,0.76051,-0.32148
0.050049,0.15521,0.79482,-0.23681
0.13584,0.13979,0.72463,-0.055288
0.065871,0.094825,0.83928,-0.10464
0.067782,0.14811,0.78419,-0.1889
0.10103,0.18425,0.71465,-0.21838
0.073052,0.13858,0.78832,-0.22709
0.040046,0.1841,0.77576,-0.28317
0.038609,0.16202,0.7993,-0.30323
0.058523,0.22697,0.71455,-0.32508
0.055545,0.22366,0.72082,-0.35833
0.065092,0.17919,0.75561,-0.3415
0.068437,0.14183,0.78972,-0.19314
0.079554,0.18222,0.73826,-0.23788
0.054338,0.089271,0.85633,-0.0057483
0.093809,0.19106,0.71514,-0.18561
0.12686,0.13358,0.73955,-0.010315
0.1259,0.17117,0.70301,-0.13261
0.086862,0.18973,0.72333,-0.24913
0.078942,0.18795,0.73311,-0.28972
